filenames,embedding_0,embedding_1,embedding_2,embedding_3,embedding_4,embedding_5,embedding_6,embedding_7,embedding_8,embedding_9,embedding_10,embedding_11,embedding_12,embedding_13,embedding_14,embedding_15,embedding_16,embedding_17,embedding_18,embedding_19,embedding_20,embedding_21,embedding_22,embedding_23,embedding_24,embedding_25,embedding_26,embedding_27,embedding_28,embedding_29,embedding_30,embedding_31,labels
Cloud/cloudy1.jpg,1.2583387,1.8775846,-0.0672147,-0.33433762,-0.741262,-0.19285196,0.26169214,0.91298795,0.7646213,-0.4852356,-0.658393,-2.3701398,1.1031517,-0.961143,-1.4786315,0.2651429,1.9977489,-0.09031128,0.7891411,-1.7984698,-0.8510809,-1.8427994,0.5161968,2.6593394,-0.17801628,-0.094223484,2.7855728,1.9176306,-1.9726009,-1.4140702,1.2513539,0.9524333,0
Cloud/cloudy10.jpg,0.20052336,1.0370948,-1.4202725,-1.0578082,-0.29963073,-0.57062256,-0.19361323,-0.32822725,-0.2829572,0.6722473,1.1043328,-0.7259482,-0.6939725,-1.3030736,-0.18350688,-0.33245674,1.2269144,0.039193876,0.3345685,-0.24343283,-1.1845032,-1.2092044,0.86249304,1.1214586,-0.24696021,-0.49305046,1.2221674,1.6261318,-1.425179,-1.1636246,0.62312293,1.2784643,0
Cloud/cloudy100.jpg,0.064385675,1.33774,-2.4219553,-1.4583256,-0.52961767,-0.72117734,-1.1642325,-0.85440195,-0.31264257,1.5787969,0.99578834,0.04917491,-0.67653584,-2.2084289,0.6512672,-0.95048314,1.1590804,-0.15485108,-0.64254975,0.5804981,-1.1578188,-1.7660073,0.9123064,1.8212247,-0.58639073,-1.8595266,1.001932,2.194122,-1.4170847,-1.7191731,1.6902612,2.5041919,0
Cloud/cloudy101.jpg,0.5559032,0.9492159,-1.5811764,-0.9182131,0.031739675,-0.35092157,-0.21811636,-0.6323759,-0.03676503,1.0598978,1.3419458,-0.5768609,-0.18195514,-1.1067533,-0.34829974,-0.43562138,1.4783776,-0.17604338,-0.2829156,0.14283119,-1.1719636,-0.99823666,0.80531365,1.2199631,-0.3897059,-0.83407295,1.1794758,1.5847527,-1.5049974,-1.4705362,0.7688465,1.7405317,0
Cloud/cloudy102.jpg,1.2983797,2.2358499,-1.4491003,-0.55303997,-0.9065102,0.20963381,0.989957,0.9053128,0.39900672,-0.1995602,-1.036783,-2.0046232,1.2103397,-1.5765111,-1.1838971,0.5242671,1.8871948,0.23698914,0.7800963,-0.61808497,-1.0757463,-2.4303741,0.7904108,2.4520798,0.0806532,0.670685,2.370534,1.0612391,-1.0496458,-2.0637617,1.4930836,0.97632134,0
Cloud/cloudy103.jpg,0.6844428,1.8403006,-0.7220238,-1.2523961,-1.1907057,-0.16268742,-0.03784586,0.93326473,-0.15746409,0.4861805,-0.21738058,-1.910707,0.5348049,-1.5690229,-0.67193973,0.33451027,1.7140586,0.27736747,0.59113896,-0.5964151,-1.8850555,-2.6016333,0.8198825,2.670778,0.077810556,0.8453713,1.7318878,1.5848529,-1.8228507,-2.4407907,1.310535,1.1053185,0
Cloud/cloudy104.jpg,0.90734947,1.4253414,-1.2775078,-0.4617355,-0.42241305,-0.35664904,0.26472837,0.5180121,0.49030176,-0.0071442947,-0.5730784,-1.2639861,0.034194477,-1.3037074,-0.9405426,0.08298145,1.6592586,0.35889602,0.4110291,-0.67666477,-0.966561,-1.460104,0.81123376,1.951286,-0.013473865,-0.29503366,2.1943376,1.1747103,-1.3544738,-0.833565,1.2798923,0.9124677,0
Cloud/cloudy105.jpg,0.62356365,1.1285752,-0.6205079,-0.5048155,-0.5057606,-0.18204969,0.10554847,0.4575371,0.34915838,-0.084607735,-0.20391601,-1.1726433,0.062207248,-0.85989547,-0.72002405,0.015949177,1.2346073,-0.061464466,0.26712054,-0.57238305,-1.0578088,-1.2347655,0.5508548,1.3212123,-0.044824228,0.16055124,1.6266367,0.997733,-0.96688354,-1.080754,0.7038547,0.7105653,0
Cloud/cloudy106.jpg,1.3966144,2.4237354,-1.283612,-0.24220917,-1.2499361,-0.2609958,0.34565005,1.2781527,0.6786264,0.16309202,-1.2611724,-1.923861,1.6504016,-1.8923848,-1.5825969,0.7277256,1.8174042,-0.12591213,0.6808641,-1.3683698,-1.3222148,-2.3222322,0.96855533,3.3276083,0.30524504,-0.46242085,2.9300053,2.0239317,-1.4710342,-2.609377,2.069932,1.8112073,0
Cloud/cloudy107.jpg,0.5369598,1.434945,-1.2231227,-0.3824127,-1.0318277,-0.43231606,0.023789976,0.3170552,-0.08582592,0.085533604,0.014336683,-0.8417701,-0.080400504,-1.4392717,-0.6321941,0.44576907,1.0218486,-0.22012925,0.92254,-0.6361293,-0.6827364,-1.7367424,0.8077103,1.4279177,-0.01597007,-0.43073133,1.550446,1.3828692,-0.9973339,-1.1149447,1.0149958,1.0838985,0
Cloud/cloudy108.jpg,0.8835971,1.994154,-1.2434708,0.0568131,-1.019705,-0.008780068,0.99695325,0.75832146,0.5695745,-0.24859862,-1.194773,-1.3817052,1.3542193,-1.3883264,-1.1506076,0.8122557,1.1581259,-0.90680385,0.10949612,-0.53627384,-0.8464906,-1.4263837,0.6749702,2.0460627,0.77751416,0.014110465,2.1587298,0.9281262,-0.55019367,-1.7106594,1.7722735,1.2299688,0
Cloud/cloudy109.jpg,0.46813628,1.5702189,-1.8696241,-0.18001014,-0.810382,-0.41124594,0.25845248,-0.53289986,-0.06651902,0.7830527,0.6233592,-0.24151717,0.49128854,-1.774083,-0.5697854,0.88462925,0.8543099,-1.2856151,0.13083202,-0.22676224,-0.83126026,-1.2739193,1.0846145,1.3832388,0.40906757,-1.2313904,1.3675034,1.646904,-1.2602841,-1.3561803,1.6496959,1.8358946,0
Cloud/cloudy11.jpg,-0.15340635,0.7755351,-0.9083066,-0.44264227,-0.86178184,0.12701955,0.38498628,1.1641979,-0.22195196,0.19990778,-1.1980038,-1.0769145,0.34516248,-0.5818805,-0.0699961,-0.20086628,0.6347462,-0.46394452,-0.42784193,0.3236111,-1.0407265,-1.0054885,0.3008732,1.4935411,0.5760597,0.38296783,1.4221089,0.32355407,-0.24649063,-1.7159735,1.9167268,1.228229,0
Cloud/cloudy110.jpg,0.26410303,1.1290505,-1.9383998,-0.17865327,-0.4164617,-0.3744467,0.12998311,-0.88256896,-0.21071234,0.7731183,1.2129852,0.04907195,-0.29398382,-1.6285589,-0.3191021,0.592144,0.76356393,-1.0730537,0.3616019,-0.17693508,-0.690977,-0.9948539,1.0012406,0.6652901,0.06024955,-1.3377138,0.99366874,1.4702535,-1.2705054,-0.7637035,1.059913,1.5865431,0
Cloud/cloudy111.jpg,1.0423964,2.60963,-1.295289,-0.707614,-0.73363864,-0.20333579,0.35674232,-0.8265129,-0.027773786,0.7804704,1.213724,-1.5165415,1.5581632,-2.1717837,-0.77217555,0.9631601,1.9488136,-1.4122357,-0.026650455,-0.73006254,-1.2971057,-2.012113,1.2251846,2.3331676,0.06345663,-0.22450636,1.7838814,2.4031644,-2.4951205,-1.9424465,1.4093511,1.9588912,0
Cloud/cloudy112.jpg,0.2375907,1.6078879,-1.5943311,-0.43334597,-1.1951445,-0.6588811,-0.121780865,0.5656663,-0.23932149,0.7543336,0.3267327,-0.9898998,0.43829736,-1.6674465,-0.8591722,0.87198895,0.9958829,-1.0514774,0.36336344,-0.5547103,-1.1106061,-1.8809162,0.9858576,1.8635128,0.41227284,-1.3282112,1.825336,1.97906,-1.588843,-1.8179791,1.9778459,2.2223926,0
Cloud/cloudy113.jpg,0.7490969,1.4803884,-1.8898606,0.1763837,-1.3515937,-0.59041023,-0.326082,-0.1170067,0.009961601,0.93278354,0.365082,-0.24475476,0.512063,-1.9461206,-1.1417118,1.1806006,0.87643796,-1.2974744,0.5166406,-1.0918437,-0.91879654,-1.661644,0.9590889,2.1967597,0.3312821,-2.0808873,1.8976822,2.2401137,-1.7539625,-1.6921127,2.0086672,2.2143643,0
Cloud/cloudy114.jpg,0.4018322,1.5661975,-2.391537,-0.21156491,-0.95334744,-0.4670828,0.32389933,-1.0790244,-0.34867406,1.2040111,0.6491014,0.3267895,0.19671836,-2.2514882,-0.37602335,1.1262823,0.7355143,-1.8371727,-0.28689688,0.269178,-0.8212792,-1.2909652,1.2634902,1.6555355,0.71532005,-1.587565,1.2177825,1.5657107,-1.4222891,-1.3009748,2.4526038,2.264355,0
Cloud/cloudy115.jpg,0.7375974,0.90704805,-1.484329,-0.2982021,-0.52005273,-0.2371333,-0.5253649,-0.37524933,-0.03261096,1.3304129,1.0101503,-0.7433037,0.37326235,-1.3188581,-0.84890294,-0.040866517,1.5634897,-0.34930637,-0.1522617,-0.90620226,-1.4436053,-0.8347095,1.0633612,2.3345833,-0.20129359,-1.1080135,1.7458903,2.1087024,-2.3874419,-1.4414167,1.6787307,1.9571693,0
Cloud/cloudy116.jpg,0.58957785,1.4012225,-0.9375616,-0.31697932,-1.6273156,-0.56997854,-0.83759964,0.88911897,-0.41132674,0.7770144,0.19508788,-0.86613816,0.5921126,-1.5845554,-0.91356903,1.0162799,0.8101557,-0.26489437,1.1245583,-1.3755875,-1.1996627,-2.1804595,1.0861183,2.438737,-0.09366093,-0.92793405,1.7315847,2.257516,-2.0067348,-2.1462374,1.676311,1.9384243,0
Cloud/cloudy117.jpg,0.6647354,1.2463315,-1.3963878,0.45991603,-0.8094399,-0.53498846,0.64798105,0.098212585,0.5514293,-0.15116748,-0.90861005,-0.0649894,0.88436985,-0.8053107,-0.7660352,0.5148816,0.78868324,-0.70285976,0.4855088,-0.57918006,0.010758191,-0.7476979,0.48660186,1.2360226,0.7025947,-1.4343708,1.7001545,0.8481276,0.017754113,-1.0839132,1.1815686,0.81654835,0
Cloud/cloudy118.jpg,0.56598914,1.1461849,-0.9249937,-0.52748626,-0.5650683,-0.32414567,-0.11162302,0.60022783,0.050376482,0.3080579,-0.050964706,-1.2689023,0.31689474,-1.1119891,-0.7855702,0.085902736,1.1270552,0.11507278,0.37966046,-0.7063631,-0.9072757,-1.2499284,0.68244326,1.7623994,-0.20410064,-0.33158714,1.7073264,1.4884205,-1.2427421,-1.2785314,1.1697026,1.3235718,0
Cloud/cloudy119.jpg,1.5328,2.2723875,-0.9551473,0.02729854,-1.9787443,-0.74627703,-0.28082225,1.1602231,0.24194948,-0.30631754,-0.77559793,-1.357093,0.4439455,-1.7297888,-1.872052,1.098696,1.8730485,-0.10479647,1.4149475,-2.4630165,-1.0931154,-2.4114056,0.8101065,3.2785559,0.13253765,-0.7440818,2.967905,2.3017087,-2.1682189,-2.0065827,1.4835615,1.4427971,0
Cloud/cloudy12.jpg,0.63523364,1.0589418,-0.9846854,-0.50413275,-0.43588957,-0.26670215,-0.13421707,0.3368504,0.43652028,0.33354884,-0.3629886,-0.58870107,0.38810718,-0.79674435,-0.3494113,-0.32030272,1.1089258,0.38886607,0.18227093,-0.49537286,-1.0567126,-1.069347,0.7602821,1.7790464,0.14662474,-0.40116355,1.6288474,1.1432339,-0.79787785,-1.5382402,1.059776,0.8020104,0
Cloud/cloudy120.jpg,0.21899435,0.943612,-1.7761399,-0.3644691,-0.65782285,-0.33936718,0.02630876,-0.16345406,-0.12929173,0.6391292,0.3689747,-0.3278798,-0.3393375,-1.4553548,-0.40135324,0.19271316,0.7533526,-0.42930862,0.40107977,0.008808352,-0.71074057,-1.1482167,0.81614316,0.99146134,-0.010155575,-0.98105407,1.1093099,1.2169175,-0.7681236,-0.94635975,1.2733606,1.4215835,0
Cloud/cloudy121.jpg,0.3552695,0.99674195,-1.4656535,-0.15033837,-0.66852057,-0.43786067,0.19294249,-0.14405206,0.035090383,0.148863,0.18371177,-0.34042388,-0.34740028,-1.1810048,-0.54231644,0.13651338,0.843989,-0.4559251,0.51827735,-0.24705113,-0.49422437,-0.90987855,0.6866418,0.7802441,0.052693725,-0.7886238,1.2608229,1.0289891,-0.502698,-0.7138275,0.80279124,1.0468833,0
Cloud/cloudy122.jpg,0.29751095,1.4194553,-1.2965622,-0.50898695,-0.41473785,-0.3009494,0.15194099,-0.22454378,0.048630737,0.30033997,0.53103924,-0.82753056,0.23851076,-1.3910459,-0.31711152,0.32180727,0.9755583,-0.7046453,0.23366913,-0.19025734,-0.7702651,-1.3051107,0.9828519,0.992398,0.021631623,-0.48046523,1.3885947,1.3881043,-1.0961403,-0.8373699,1.0915294,1.2643616,0
Cloud/cloudy123.jpg,0.23398595,0.47741002,-0.7562694,-0.27433968,-0.255069,-0.19844964,0.08674714,-0.0738354,-0.115537375,0.11529313,0.59141517,-0.86712104,-0.46183234,-0.63331926,-0.64623636,-0.047717705,0.8030951,-0.47620365,0.119129136,-0.40052503,-0.4306906,-0.4702108,0.5225744,0.74496055,-0.17234215,-0.38141453,1.2597573,0.9685116,-1.2045878,-0.095484346,0.95119345,1.0458466,0
Cloud/cloudy124.jpg,0.001178734,0.5893434,-1.0197804,-0.14351384,-0.45079458,-0.34932968,0.057486232,-0.17241476,0.01110159,0.17205673,0.056558717,-0.2053773,-0.062419306,-0.839452,-0.15677965,0.13671099,0.27299383,-0.64648646,0.08602845,-0.097488105,-0.40994126,-0.44311032,0.5757571,0.48164266,0.17777014,-0.6316897,0.9524001,0.8378378,-0.25094476,-0.41587567,0.83240485,0.7762506,0
Cloud/cloudy125.jpg,-0.047358226,0.83341897,-1.4117118,-0.583306,-0.74179894,-0.54883623,-0.42867285,0.28486565,-0.46169776,0.63403594,0.6634313,-0.6740213,-0.71542925,-1.2995944,-0.45084712,0.16088039,0.7228651,-0.72077876,-0.014688374,-0.27304986,-1.0541277,-1.0892831,0.6815694,1.0757282,-0.0245012,-0.91146266,1.3515868,1.5157359,-1.3245006,-1.0451038,1.3015082,1.8923365,0
Cloud/cloudy126.jpg,0.020717522,0.5399499,-1.1769096,-0.2525455,-0.50050026,-0.44649625,-0.24453513,-0.14298223,-0.24573387,0.38771877,0.7478935,-0.3537352,-0.66272175,-1.033113,-0.3908053,0.097455114,0.46936697,-0.48764336,0.5309051,-0.4909826,-0.55519694,-0.697906,0.6018429,0.5247194,-0.16638492,-0.95777816,1.0057917,1.316383,-0.8613352,-0.48130816,0.66645306,1.1412911,0
Cloud/cloudy127.jpg,0.0033942992,0.70836276,-1.1956285,-0.1896135,-0.7533741,-0.52296424,-0.22105584,0.15934527,-0.21287566,0.37491298,0.4081809,-0.43776393,-0.35571605,-1.0471506,-0.5845013,0.31933236,0.42098743,-0.840132,0.38310063,-0.5706937,-0.5661989,-0.83887565,0.59307384,0.8965717,0.14580335,-1.2429683,1.2991451,1.4354959,-0.8713238,-0.8549696,1.1914837,1.4937868,0
Cloud/cloudy128.jpg,0.08078624,0.6164514,-1.2547672,-0.13192485,-0.39404273,-0.3706131,0.19105095,-0.19969589,-0.10970308,0.08013839,0.37829268,-0.2794897,-0.6367197,-0.89900607,-0.3343516,-0.058935247,0.5674869,-0.48685157,0.3289335,-0.20831725,-0.44342873,-0.4288088,0.53763896,0.32410002,0.03925121,-0.5902349,1.0277938,0.8180642,-0.37105814,-0.36255223,0.5101883,0.867742,0
Cloud/cloudy129.jpg,0.6450637,0.8826596,-1.730964,-0.47272786,0.10081135,0.00025796704,-0.22048691,-0.7974424,0.12830433,1.5276282,1.2908511,-0.65147316,0.4005982,-1.6192005,-0.36277932,-0.22771075,1.1839331,-0.21384561,-0.14907123,-0.08145836,-1.0282679,-0.9991631,0.9560687,1.7864853,-0.41020668,-1.24718,1.0814445,1.8432775,-1.9610695,-1.1533401,1.4473095,1.9949183,0
Cloud/cloudy13.jpg,0.5935708,0.92161804,-0.72056144,-0.27579752,-0.69290805,-0.21328634,0.012748141,0.598615,0.24504574,-0.06681452,-0.33306345,-1.0345317,-0.03325954,-0.7219131,-0.7476145,-0.19741136,1.1243638,-0.07482837,0.21237639,-0.45079455,-0.9877756,-0.9726744,0.62303895,1.323559,-0.10268362,0.10534687,1.7311485,0.93058264,-0.717314,-1.1242664,0.9010348,0.97814023,0
Cloud/cloudy130.jpg,0.013621427,0.57512563,-0.98377514,-0.7011826,-0.31971413,-0.31873417,-0.34038302,0.27381647,-0.33504882,0.6772471,0.62783873,-0.72105557,-0.41741934,-0.87626123,-0.19086736,-0.18278725,0.72098273,-0.053457435,0.05819056,0.07313892,-0.88289493,-0.9921107,0.58601415,0.8508611,-0.23491049,-0.39041904,0.8784205,1.1180091,-0.9785274,-0.9713169,0.83349997,1.3587468,0
Cloud/cloudy131.jpg,0.3702871,1.6817168,-1.9994572,-0.9296133,-0.61745685,-0.66293794,-0.38673648,-0.72801256,0.041615184,1.0473123,1.0796382,-0.46032205,-0.26980445,-2.0463471,-0.20270929,-0.073405474,1.4721014,-0.72250766,-0.03759682,-0.12852243,-1.3776263,-1.582427,1.1408308,1.6031121,-0.118949085,-1.4033864,1.4749854,2.1612513,-1.7151735,-1.5421015,1.3743337,2.0269647,0
Cloud/cloudy132.jpg,0.17971995,1.2202932,-1.9897919,-1.250284,-0.62448305,-0.9811849,-0.9774682,-0.5392195,0.07416698,1.0172873,0.5667315,0.26186043,-0.70205534,-1.5309696,0.44729212,-0.8896506,1.1783253,-3.61586e-05,-0.35837227,0.61889446,-0.944161,-1.7348022,0.86345285,1.461513,-0.27622467,-1.827432,1.1508507,1.6794535,-0.90412045,-1.5495481,1.339127,1.8781942,0
Cloud/cloudy133.jpg,0.48610288,1.7149113,-2.0604434,-0.8855525,-0.6029533,-0.8006255,-0.31245458,-0.7781351,0.08536167,0.7401526,1.1456083,-0.09321558,-0.48728162,-1.712191,-0.342414,-0.061958216,1.4906529,-0.78284746,0.011571476,-0.17559902,-0.97726005,-1.6598582,0.84551966,1.2902241,-0.055454344,-1.7747977,1.4552658,1.9647893,-1.4031041,-1.6077225,1.0284795,1.9488122,0
Cloud/cloudy134.jpg,0.10369825,1.4288046,-2.4671707,-1.4918242,-0.5886341,-0.74586695,-1.1756012,-0.8978627,-0.29933643,1.5663896,1.0174571,0.09188634,-0.7080095,-2.2836363,0.6436073,-0.915213,1.2054368,-0.15329564,-0.5697449,0.56961393,-1.1101332,-1.9158937,0.9360489,1.8480723,-0.6030779,-1.9485002,0.99602675,2.222845,-1.4654555,-1.7114891,1.7288873,2.5154727,0
Cloud/cloudy135.jpg,0.52091604,1.0101746,-1.5477715,-0.9500788,0.015482974,-0.4350323,-0.15267052,-0.628906,-0.0048793033,0.9749916,1.2716061,-0.5946742,-0.20700113,-1.137171,-0.34092724,-0.41297507,1.4500998,-0.20139542,-0.22645088,0.112067744,-1.1334531,-1.0120528,0.8196835,1.2243626,-0.2906517,-0.8520018,1.2271055,1.6017414,-1.4580915,-1.411696,0.7781408,1.6624956,0
Cloud/cloudy136.jpg,0.78053373,0.69623774,-0.5006427,-0.2744169,-0.88546073,-0.7173474,-0.7585193,0.9565462,0.5421288,0.100868165,-1.2090135,-0.12790042,0.090016484,-0.31010997,-0.4100542,-0.22124788,1.2073764,0.575785,0.008846253,-0.84162277,-1.8322989,-0.7737224,0.8020862,2.1106482,0.32923234,-0.020407965,2.1485703,0.8796265,-0.7935507,-1.9975077,0.8219966,0.47056782,0
Cloud/cloudy137.jpg,0.7813138,0.06893316,-0.046363365,0.30525833,-0.7723051,-0.25079638,-1.0683869,0.46734968,0.66253376,0.21240656,-1.2379556,0.51758647,0.066863805,0.25426343,-0.08005999,-0.67688996,0.854684,0.7495015,-0.10212314,-1.2786528,-1.5321224,0.22664052,0.4255006,2.268727,0.32131016,-0.1411573,1.7064946,0.77944255,-0.6899979,-1.642967,0.7535614,-0.06710517,0
Cloud/cloudy138.jpg,1.3374331,1.4857668,-0.20130694,-0.09743315,-1.7955652,-0.38311797,-0.56498873,1.6039816,0.3938588,-0.3647308,-1.558168,-0.82317585,0.3682587,-0.77607965,-1.2755502,0.83409333,1.360627,0.2350181,0.9821498,-1.530148,-1.2051686,-2.2978947,0.7554109,2.924999,0.24759188,-0.07104851,2.518858,1.197346,-1.4794948,-2.1112812,1.6947402,0.8983333,0
Cloud/cloudy139.jpg,0.69524133,0.40248358,-0.5114065,-0.42554665,-0.4334951,-0.1832855,-0.7188762,0.34697542,0.38362443,0.47447073,-0.24431044,-0.5582839,-0.36404774,-0.7840789,-0.50124526,-0.46500188,1.0687333,0.9038875,0.5647738,-1.2174749,-1.1767259,-1.1028254,0.5214458,2.1403313,-0.153496,-0.46950918,1.4898274,1.2651415,-1.6112602,-0.99892586,0.7931728,0.47787392,0
Cloud/cloudy14.jpg,0.61500186,0.8313002,-0.59252435,-0.39820135,-0.58300644,-0.26830882,-0.09811226,0.53989935,0.57701564,0.03139855,-0.55181426,-0.82585055,-0.15362981,-0.7789479,-0.73086876,-0.1573161,1.0897491,0.20732936,0.28106004,-0.67700607,-1.1802274,-1.0341796,0.70012295,1.6472676,0.2275338,-0.12619062,1.734447,0.9387786,-0.9731898,-0.9365394,1.0620389,0.53802514,0
Cloud/cloudy140.jpg,1.6519113,1.4061133,-0.6461121,-0.34727052,-0.5334915,-0.9150884,-0.9145413,0.4694897,0.40881786,0.48785278,0.2486548,-1.0267562,0.21118662,-1.3803035,-1.1522394,0.30837953,2.0934594,0.92723995,0.94811124,-1.8350186,-1.3796461,-2.1618938,1.1731162,3.162333,-0.4262876,-0.7907644,2.5772483,2.1509502,-3.1781595,-1.2547177,0.8229682,1.2856957,0
Cloud/cloudy141.jpg,0.20796888,1.2054684,-1.7035216,-0.72014517,-0.62919694,-1.0061738,-0.005557775,0.7287263,0.036329843,-0.026920341,-0.18007927,-0.60799885,-1.0542195,-0.67400956,-0.42565227,-0.6658686,1.724555,-0.2908525,-0.5364901,0.5532852,-1.3054528,-1.0756106,0.9363075,0.98837477,0.2270426,-0.5094414,2.2343476,0.7127249,-0.7345653,-1.2947315,1.2826438,1.8386428,0
Cloud/cloudy142.jpg,0.13692547,-0.15466759,-1.2306038,0.3129365,-0.38733345,0.16226768,-0.14635646,1.8601512,-0.2991813,0.82640046,-1.2079713,-0.42619434,0.19019401,0.13973361,-0.72878915,0.020622514,0.6010667,-0.09702855,-1.3190228,0.8786713,-0.5968918,-0.6418163,0.088617,1.575436,0.17852706,-0.6539959,1.3345637,-0.33800882,-0.9435841,-1.1211116,2.7765737,2.481197,0
Cloud/cloudy143.jpg,0.59494746,1.3887042,-2.3850713,-1.0868489,-0.86786294,-0.98706746,-0.46125314,-0.606642,0.037046727,1.0073535,0.6793403,0.11515564,-1.0178578,-1.9962704,-0.42702603,0.13856225,1.3390911,-0.27338052,0.46872717,-0.86099267,-1.8597999,-1.70569,1.164392,2.3167777,0.40573972,-1.7951934,2.1335444,2.4027143,-1.9067057,-2.1334095,1.4685097,1.5977385,0
Cloud/cloudy144.jpg,0.933545,1.649935,-1.1691577,-0.24637803,-0.9668305,-0.56194746,0.64619726,1.6547071,0.71974164,-0.54741794,-1.4370879,-1.5832692,-0.071739614,-0.80356234,-1.5950989,0.3748628,1.9668282,-0.1733943,0.023239478,-0.8232737,-1.3759983,-1.5424116,0.35496068,2.1805706,0.71563923,-0.34921336,2.9276025,0.76557815,-1.2097881,-1.5722235,1.6004418,1.1942921,0
Cloud/cloudy145.jpg,-0.036981728,0.8711564,-1.9485874,-1.5019028,-0.521572,-0.8237916,-0.8620223,-0.54317963,-0.23738152,1.3480008,0.9148,0.04406567,-0.87629294,-1.6840341,0.28217962,-0.44645002,0.8268777,0.084705204,-0.04880341,0.37294823,-1.2419853,-1.6968153,1.1064329,1.6196856,-0.11253114,-1.5604942,1.0285997,1.8381709,-1.4209336,-1.3579354,1.7416904,1.7136195,0
Cloud/cloudy146.jpg,1.2983797,2.2358499,-1.4491003,-0.55303997,-0.9065102,0.20963381,0.989957,0.9053128,0.39900672,-0.1995602,-1.036783,-2.0046232,1.2103397,-1.5765111,-1.1838971,0.5242671,1.8871948,0.23698914,0.7800963,-0.61808497,-1.0757463,-2.4303741,0.7904108,2.4520798,0.0806532,0.670685,2.370534,1.0612391,-1.0496458,-2.0637617,1.4930836,0.97632134,0
Cloud/cloudy147.jpg,0.7745557,2.0031633,-0.79568285,-1.2719526,-1.3120013,-0.2333328,-0.040909313,1.0446944,-0.14314196,0.45072788,-0.35346615,-1.9233963,0.5859142,-1.6633387,-0.73273945,0.4518267,1.7951694,0.34436005,0.72498703,-0.7064266,-1.9520305,-2.7765336,0.87437916,2.82774,0.103743866,0.81060374,1.88622,1.680171,-1.8466976,-2.6327446,1.3622514,1.1184398,0
Cloud/cloudy148.jpg,0.88517237,1.4723749,-1.2892474,-0.4934991,-0.46400923,-0.42422113,0.22913072,0.55889547,0.4580329,-0.0128519125,-0.5207138,-1.2981613,-0.006828746,-1.3311182,-0.95799875,0.0940893,1.6911662,0.3499201,0.4441461,-0.72183883,-0.99983394,-1.5176868,0.8411405,1.9663095,-0.010024581,-0.33054936,2.2448096,1.248188,-1.4230871,-0.8563339,1.2770166,0.96669316,0
Cloud/cloudy149.jpg,0.73235565,1.3365734,-0.6982079,-0.5273929,-0.58991116,-0.13205978,0.22714922,0.66244376,0.37203798,-0.16289534,-0.3684586,-1.4700949,0.21355559,-0.90897566,-0.8401118,0.012396542,1.4873407,-0.015481761,0.2689784,-0.5724422,-1.1433108,-1.4602662,0.586094,1.5520668,-0.060542583,0.33567345,1.885744,0.99130297,-1.0901586,-1.2262676,0.88484627,0.8173009,0
Cloud/cloudy15.jpg,1.3657882,2.4764562,-1.3615531,-0.38690943,-1.2728959,-0.08592078,0.8975587,1.2177283,0.32977888,-0.47488728,-1.2493112,-1.9819442,1.0304344,-1.59853,-1.2282764,0.73042625,1.9865978,0.26817256,1.1650254,-0.9625474,-0.9248767,-2.7083316,0.6566668,2.6113696,0.14772391,0.43204355,2.5872025,1.1992106,-1.1246643,-2.1276634,1.3451837,0.94244164,0
Cloud/cloudy150.jpg,1.3750854,2.5267768,-1.2400844,-0.30309623,-1.2691615,-0.3131148,0.4466781,1.2566406,0.67952067,0.13113305,-1.1905546,-1.981396,1.7331212,-1.9201049,-1.6227363,0.86383235,1.80326,-0.22298734,0.741948,-1.3954295,-1.2976257,-2.4171262,0.979705,3.3326094,0.4191813,-0.4781158,2.9106126,2.0662293,-1.5346768,-2.623929,2.0729036,1.7829432,0
Cloud/cloudy151.jpg,0.503707,1.4206364,-1.2314903,-0.36469978,-1.0093137,-0.4601037,0.057972487,0.27806795,-0.06806366,0.042779423,-0.008380853,-0.8166289,-0.10833289,-1.4255208,-0.59257823,0.3996177,1.0016432,-0.22317427,0.93855137,-0.6234457,-0.6216689,-1.6844438,0.80725414,1.3614782,0.0047189407,-0.46045995,1.5503151,1.3571073,-0.9275901,-1.0240045,0.9885259,1.0272765,0
Cloud/cloudy152.jpg,0.68676275,1.6557605,-1.0430325,-0.5990049,-0.6604348,-0.6907594,-0.49626577,0.39438453,0.17096664,0.5711614,0.4677592,-1.2937428,0.4739263,-1.5190953,-0.6195979,-0.108348176,1.5898663,0.22027646,0.7467367,-1.257203,-1.1980692,-1.7829783,1.1444037,2.19922,-0.26523596,-0.8464382,2.088274,2.3416245,-1.9935731,-1.5467511,1.067843,1.5746332,0
Cloud/cloudy153.jpg,0.15248911,1.4984612,-0.97014284,-1.0492406,-0.52571136,-1.0800275,-0.1965937,-0.2892683,-0.30559504,0.18608649,1.2622973,-1.1361036,-0.38829166,-1.1399722,-0.13697515,-0.5568016,1.465308,-0.07099445,0.92711884,-1.0858252,-0.577403,-1.5572629,0.78957975,1.427671,-0.16459443,-0.9775384,1.7312217,2.34274,-1.7690802,-1.0474312,0.41923392,1.1926173,0
Cloud/cloudy154.jpg,0.07539256,1.0225551,-0.91597223,-0.73581076,-0.38346866,-0.58718646,-0.19689661,-0.40681535,-0.29322568,0.429246,1.180473,-0.70063376,-0.1564371,-0.898476,0.0375981,-0.40149584,0.9887655,-0.17500275,0.7522329,-0.39731142,-0.3737274,-1.2685375,0.85418725,0.876518,-0.32891238,-0.79470724,1.0846311,1.6935648,-1.247563,-0.8304086,0.6753299,1.1495047,0
Cloud/cloudy155.jpg,0.11527975,0.96755195,-1.031555,-0.8551239,-0.24518248,-0.4851384,-0.4231843,-0.25055838,-0.023733858,0.62286466,0.84736663,-0.58510923,-0.1560755,-1.1001604,0.09053719,-0.40542036,0.8947492,0.06613133,0.4313611,-0.33666673,-0.83809096,-1.224551,0.8071902,0.98180664,-0.27705082,-0.78772074,1.0452937,1.6342351,-1.0649829,-1.0514096,0.60508513,1.0306183,0
Cloud/cloudy156.jpg,0.054561242,1.0173708,-1.4359571,-1.1420559,-0.4425004,-0.54318565,-0.7979407,-0.20440379,-0.12699956,0.94819325,0.887935,-0.6215382,-0.52985865,-1.5246552,0.10653296,-0.45303342,0.99207014,0.08709471,0.17987537,-0.1747739,-1.1296146,-1.5678729,0.7951662,1.3728104,-0.4162808,-1.1098065,1.097714,1.887111,-1.4356514,-1.1993144,1.034689,1.4876264,0
Cloud/cloudy157.jpg,0.20400637,0.3328932,-0.72297996,-0.42850828,0.35191086,-0.28206754,0.0449824,-0.157697,-0.21712624,0.504826,0.97615266,-1.0948626,-0.31257254,-0.3654861,-0.28200808,-0.67007405,1.1493449,-0.13195291,-0.28020212,-0.053615782,-0.43240732,-0.35855818,0.59545445,0.95757586,-0.3000439,-0.43736035,1.4187142,1.0681814,-1.659564,-0.0575069,1.0075535,1.3550588,0
Cloud/cloudy158.jpg,0.64564186,1.2864658,-0.6099556,-0.73157763,-0.24232857,-0.5940144,-0.2153904,0.18790945,0.052925114,0.12942652,0.6509895,-1.4621611,-0.08607091,-1.1719894,-0.71596986,-0.056928188,1.5310243,0.29524645,0.88290066,-1.2592108,-0.5242696,-1.715235,0.7658329,1.685564,-0.36527362,-0.6486932,1.822693,1.8438594,-2.0649734,-0.49214154,0.71512836,0.9969712,0
Cloud/cloudy159.jpg,-0.54945385,0.70594513,-1.2730061,-0.9935286,-0.2123265,-0.44354331,-0.63293076,-0.5962213,-0.60945994,1.3964326,1.4122293,0.28956938,0.20673004,-0.5133785,1.0697688,-0.5024335,0.4229703,-0.15595192,0.059818298,-0.2534002,-1.8917774,-0.55720234,1.4923067,1.2307974,0.46528414,-0.37713182,1.0017982,1.9850304,-1.268465,-2.3555136,1.0658612,1.0676923,0
Cloud/cloudy16.jpg,0.93764704,1.7896818,-1.4161248,-0.22183129,-0.9692101,-0.21858416,0.37966383,0.5366554,0.3976279,0.012244752,-0.44338202,-1.2487862,0.42304134,-1.5086716,-1.1181803,0.44067335,1.5240356,-0.38570958,0.4632757,-0.67472947,-1.0782754,-1.7069699,0.82719564,1.9071761,0.15564685,-0.25666142,2.134751,1.3209722,-1.0976243,-1.5263696,1.3437144,1.3349395,0
Cloud/cloudy160.jpg,1.0093776,1.2837558,-0.32633084,-0.8527606,-1.1085948,-0.45061454,-0.50114715,1.1182514,0.4005914,0.15630233,-0.78942883,-1.2828113,0.30967107,-0.8050998,-0.87851155,0.010718051,1.6969765,0.61281264,0.49782488,-0.99215615,-1.7826084,-2.0424447,0.86907154,2.7905362,0.117130265,0.30004936,2.2822156,1.3850368,-1.6611829,-2.1512003,1.3045456,0.770603,0
Cloud/cloudy161.jpg,0.36616024,0.11669197,-0.2583946,-0.3184476,-0.21834458,0.2174702,0.1898085,-0.21661553,-0.20560543,0.17623463,0.52521133,-0.42307636,-0.32407752,0.0024304278,-0.5133242,-0.268614,0.8215549,0.011766054,-0.06676586,-0.083346404,-0.40882194,-0.21546021,-0.02856274,0.45364586,-0.28148714,0.45099124,0.2567982,0.17916226,-0.7401519,-0.5447302,0.13310942,0.41153872,0
Cloud/cloudy162.jpg,0.99237436,1.3241012,-0.59268045,-0.39701068,-0.9973251,-0.5344672,-0.22132796,0.9607979,0.487598,-0.14249328,-0.83591264,-1.0745804,0.2229584,-0.90665686,-1.0831807,0.203109,1.4906746,0.4014628,0.66312534,-1.2384808,-1.3109597,-1.4980712,0.7773978,2.255085,0.11266357,-0.10099344,2.2729225,1.354681,-1.2558761,-1.5997505,1.0252837,0.72565967,0
Cloud/cloudy163.jpg,0.5015262,0.92738914,-0.9567453,-0.7479152,-0.5024402,-0.26459244,-0.29243767,0.08067368,-0.036911305,0.50427544,0.76121974,-1.0819954,-0.45503354,-1.1322371,-0.6460994,-0.0055105872,1.3587124,-0.023947092,0.481708,-0.6341893,-1.3557147,-1.4164886,0.72459376,1.3402929,-0.38771066,-0.19435737,1.4398353,1.5250711,-1.6707925,-1.1855049,0.65220046,1.1006685,0
Cloud/cloudy164.jpg,-0.43714523,0.8812653,-2.1025484,-0.7362995,-0.36469507,-0.8292769,-0.091536574,-0.4108621,-0.85429615,0.9586424,1.6069101,-0.3000252,-1.0894884,-1.578279,0.26971424,0.049887717,0.55359447,-0.14643054,1.1991268,-0.56589687,-1.1844276,-1.0907931,1.2240753,0.7493035,0.093495145,-1.1215985,1.2076172,2.1502097,-1.4963387,-1.1069689,0.68805075,1.3746334,0
Cloud/cloudy165.jpg,0.17335983,1.3161693,-1.3737364,-1.360301,-0.75932086,-0.22948685,-0.8070803,0.09280369,-0.3773926,1.5705813,0.8702957,-0.7653847,0.44201016,-1.7174655,0.24115421,0.3327223,1.0009195,-0.06483327,0.27709866,0.22663996,-1.8955944,-2.42732,1.2651839,1.9788563,-0.19241662,-0.4045035,0.9555117,1.9550861,-1.7767967,-2.469393,1.5795305,1.7347437,0
Cloud/cloudy166.jpg,-0.09229925,0.843683,-0.6716937,-1.0789807,-0.19714269,-0.89185953,-0.48446816,0.51760244,0.05122173,0.36540446,0.17963943,-0.8288305,-0.46750242,-0.64167076,-0.0305809,-0.473884,1.1219544,0.43575355,0.028681332,-0.5393391,-1.4655089,-0.9528919,0.62071335,1.3808048,0.2739004,-0.3893319,1.5077467,1.44007,-1.2860241,-1.1827691,0.5233681,0.6591499,0
Cloud/cloudy167.jpg,2.1079109,2.220503,-1.042747,-0.13633633,-1.4722366,-0.35437036,-0.33989277,1.3399593,0.38148054,-0.10759579,-0.6358946,-1.8568429,0.71176666,-1.4862069,-2.2386994,0.7929601,2.649929,0.501615,1.0067323,-2.183431,-1.3684828,-2.460004,0.63020134,3.3952522,-0.71782154,-0.3512376,3.1467538,2.127441,-2.50519,-2.441541,1.2302722,1.8178667,0
Cloud/cloudy168.jpg,0.7083579,1.5937617,0.09511981,-0.07064754,-1.104031,-1.1605513,-1.2039163,1.3317031,-0.32374194,-0.0029764324,0.40269157,-0.97187996,0.30845934,-0.6029965,-0.67256004,0.5160341,1.4931704,0.31111613,0.8681797,-1.697651,-0.91843516,-1.8528476,0.75953096,1.9167109,-0.36955002,-0.43259323,1.9166139,1.9885536,-2.3808904,-1.42311,0.257253,1.5005243,0
Cloud/cloudy169.jpg,1.4611198,1.6660504,-1.4194745,-0.14753853,-0.679656,0.56375647,1.4784331,0.5351694,0.9145615,-0.796742,-1.3052281,-1.6408184,-0.2743109,-1.0334802,-1.4101186,-0.2245281,2.2907894,-0.005625576,0.013470061,-0.26421994,-1.264561,-1.5475053,0.33979893,1.8863077,0.4440139,1.2121127,2.4162726,-0.1814813,-0.8019646,-1.069146,1.1083187,0.33879966,0
Cloud/cloudy17.jpg,0.8510339,1.3843887,-1.261799,-0.14718238,-0.91297853,-0.010505926,0.5776193,0.47913852,0.2504684,-0.18659726,-0.57722867,-0.9458036,0.25006688,-1.0763357,-0.91409844,0.2891946,1.1760061,-0.384868,0.28345802,-0.20622428,-0.8898819,-1.3352772,0.68715423,1.3869474,0.17294487,0.25888994,1.7758411,0.6485173,-0.5109482,-1.380174,1.1324185,1.0522214,0
Cloud/cloudy170.jpg,1.6751462,1.8040867,-1.2931142,-0.26466405,-0.757324,-0.17152889,0.8874205,1.2202687,0.9980929,-0.6664062,-1.2469379,-1.3820088,0.0012109857,-0.8405009,-1.9801708,0.49853587,2.2650065,0.41077837,0.5129559,-0.9163838,-1.0579638,-2.0390348,0.18645166,2.160167,0.3577487,-0.13171431,2.5887473,0.47330087,-1.0888759,-1.6393663,0.9520743,0.6847234,0
Cloud/cloudy171.jpg,0.6647848,0.9372363,-1.1779724,-0.5868082,-0.2666982,-0.4526905,-0.060023136,0.45294142,0.2828655,0.26963612,-0.4281758,-1.1169001,-0.44528276,-1.3619645,-0.6461786,-0.27540472,1.3302555,0.77526075,0.5085082,-0.8027955,-0.9885334,-1.2611942,0.7420679,2.0384243,-0.029327335,-0.39604837,1.9391086,1.2831464,-1.4442124,-0.56965977,1.1076922,0.76619977,0
Cloud/cloudy172.jpg,1.3754966,1.3054546,-1.9493244,0.48758572,-1.218208,0.43824604,1.2207078,0.62338644,0.7152654,-0.7443321,-1.8414367,-0.066431694,-0.18968627,-0.5865869,-1.0017701,-0.16817206,1.5011085,-0.093655184,0.14645666,0.45564875,-0.5542368,-1.3425332,0.5834353,1.2712208,0.5734855,0.48193708,1.9932612,-0.82745355,0.6020512,-1.3870264,1.4698741,0.6473803,0
Cloud/cloudy173.jpg,0.29678985,0.7989877,-1.2439363,-1.0204834,-0.40573448,-0.6384143,-0.58432555,0.09693328,-0.18034226,0.6087263,0.71392924,-0.57649016,-0.60604054,-0.905285,-0.16458398,-0.5677185,1.1593952,0.34394407,0.15265125,0.10881902,-0.8846836,-1.3990407,0.6585813,1.1180086,-0.49611488,-0.722882,1.1750814,1.3192111,-1.0555623,-1.2301592,0.6939955,1.416694,0
Cloud/cloudy174.jpg,0.14697278,1.3219104,-1.1627431,-0.89032364,-0.32745418,-0.8762448,-0.07298426,-0.3661445,-0.09499741,0.3999036,1.1525744,-0.9520922,-0.2835387,-1.2405571,-0.15538639,-0.50836957,1.267699,-0.011519976,0.881842,-0.9416583,-0.731787,-1.3365558,0.8139685,1.2360852,-0.079196915,-1.0162114,1.501981,2.1658287,-1.4612389,-1.0489596,0.36238092,1.0480971,0
Cloud/cloudy175.jpg,0.068251275,0.51294565,-0.87395453,-0.71838605,-0.258677,-0.39395836,-0.38826883,-0.2897057,-0.03410158,0.49582693,0.58303976,-0.15947622,-0.4883399,-0.76864725,-0.011669682,-0.27658054,0.62433493,-0.035999637,0.048754692,0.0014616996,-0.6972177,-0.8268395,0.56422293,0.6487792,-0.10651207,-0.5866709,0.6696862,0.9488307,-0.70525324,-0.6434332,0.5640893,0.73626924,0
Cloud/cloudy176.jpg,1.0146173,0.24209684,-0.54010963,-0.07723196,-0.34181044,-0.000901632,-0.2470693,1.0674788,0.46790397,-0.025196442,-0.65926355,-1.2735617,-0.5237382,-0.35208642,-1.3700155,-0.39407548,1.5559422,0.83768964,0.28912354,-0.9608787,-0.7642458,-1.034777,0.27350035,1.9702528,-0.45134744,-0.26314348,2.0546224,0.6151114,-1.6558981,-0.3502664,1.2495685,0.8769264,0
Cloud/cloudy177.jpg,0.89053583,1.5542704,-0.7452505,-0.715809,-1.220949,-0.12336832,-0.0005333498,0.7979245,0.26559147,-0.028370332,-1.3283889,-1.104721,0.37054372,-1.179315,-0.44721714,-0.1707215,1.5373613,0.64004207,0.22353941,-0.49608237,-1.3941278,-1.7891388,0.41127706,2.470192,0.19381139,0.8585695,1.6674286,0.79203904,-0.6537148,-1.9596455,1.0033278,0.35055572,0
Cloud/cloudy178.jpg,1.0254472,1.0115743,-0.9873206,-0.041692857,-0.6607473,-0.059874076,-0.0028690994,1.2860137,0.4690378,-0.1265192,-0.79735005,-1.6047024,-0.08870909,-0.68566275,-1.37235,-0.29487887,1.8444749,0.20195742,-0.061163694,-0.70271814,-1.246043,-1.1233016,0.36923608,1.8954722,-0.33939478,0.023141053,2.4461095,0.84691554,-1.1922667,-1.303741,1.1816777,1.435414,0
Cloud/cloudy179.jpg,0.67710567,0.97695756,-0.7368057,-0.23993349,-0.7059658,-0.24371506,0.027031936,0.6373199,0.3155081,-0.10712675,-0.40111884,-1.0223085,0.003652215,-0.6933996,-0.8129029,-0.18902387,1.2260513,-0.059692267,0.18151152,-0.46799552,-1.0332993,-0.99393636,0.6371242,1.3678479,-0.07941173,0.10364202,1.8254254,0.89755213,-0.7269577,-1.1779388,0.880472,0.9762684,0
Cloud/cloudy18.jpg,1.1140672,1.8420287,-0.71935153,-0.392272,-1.5127488,-0.06922533,0.19978602,1.2759318,0.34303445,-0.38491905,-1.5266678,-1.8326136,0.5832177,-1.1039,-0.82813334,-0.31199706,2.0401316,0.39933586,0.23613161,-0.67217445,-1.6081035,-1.9397155,0.4452545,2.6647298,0.0131648965,1.2837114,2.4077203,0.8394683,-0.8799813,-2.1639538,1.0877459,0.7274219,0
Cloud/cloudy180.jpg,0.7159161,1.4994899,-1.3143882,-0.671753,-0.13276024,-0.7989855,0.21055155,0.103841245,0.56552637,-0.08717339,-0.10085214,-0.92557573,-0.18157393,-0.9286092,-0.5896766,-0.48100397,1.8630034,-0.0097648455,-0.07933375,-0.33102614,-0.8932897,-1.3084369,0.7263228,1.5581816,0.22028491,-0.751329,2.2785766,1.2313073,-1.1184437,-0.99454224,0.8336245,1.0539659,0
Cloud/cloudy181.jpg,0.69761854,0.87699413,-0.4913786,-0.36757922,-0.38827258,-0.17459652,0.0915422,-0.49519578,0.27724743,0.038742356,0.010645006,-0.5331495,-0.11729806,-1.5808034,-0.5413515,0.182549,0.41842493,0.63691413,1.4247829,-1.8987087,-0.3360099,-1.2932137,0.8357133,2.183978,0.44879195,-0.30710372,1.1837184,1.471272,-1.6800641,0.066060364,0.6790978,-0.22579521,0
Cloud/cloudy182.jpg,1.1477871,1.4493535,-1.7976804,-0.6996857,-0.5055434,-0.15955469,-0.49598196,-0.5973926,0.081013486,1.7038456,1.2989594,-0.8924222,0.72782254,-1.9976487,-0.9474279,0.4130815,1.8263206,-0.379597,-0.10855211,-0.502227,-1.7786051,-1.7191885,1.3388487,2.6591456,-0.42760128,-1.0355759,1.6550475,2.343455,-2.795125,-2.0392764,1.8078153,2.386904,0
Cloud/cloudy183.jpg,1.0254565,1.0678625,-0.7363175,-0.6966807,-0.8702231,-0.6374519,-0.98806036,1.1877267,0.12733632,0.5212973,0.13364372,-1.2600685,-0.17291832,-0.8418771,-1.3027644,0.083918974,1.8299406,0.68321013,0.6296019,-1.4942983,-1.4319264,-2.0636213,0.6570709,2.7554257,-0.39395496,-0.94606334,2.349264,1.9936224,-2.5247786,-1.8686508,1.2904356,1.6623075,0
Cloud/cloudy184.jpg,0.2142459,0.12974152,-0.9651898,-0.2100476,-0.18342082,0.046895936,-0.29138076,0.51433367,-0.1639498,0.5531019,0.026405193,-0.99649686,-0.2783006,-0.55149394,-0.42302954,-0.72850573,0.84308445,0.14225203,-0.46716732,-0.030395374,-0.8961486,-0.18052775,0.34281102,1.1444927,-0.48660696,-0.015495572,1.2668908,0.7695535,-0.7915541,-0.74287724,1.0535944,1.4282227,0
Cloud/cloudy185.jpg,-0.146976,0.44072822,-1.2201756,-0.69009936,-0.6516485,-0.048873387,-0.40022105,-0.10868694,-0.43171486,0.716,0.27818483,-0.5807439,-0.39600956,-1.0672553,0.08654253,-0.56060386,0.5060965,-0.10311593,-0.31333578,0.07319481,-0.9465755,-0.5052043,0.4385508,1.1402395,-0.19199792,-0.07234214,0.7032221,1.0482355,-0.6282239,-0.93209326,1.1106658,1.1227217,0
Cloud/cloudy186.jpg,0.5899632,2.0680153,-0.74176234,-0.51650685,-0.6887209,0.1685411,1.401248,0.36768478,0.55208766,-0.68977433,-0.9204198,-1.5269015,1.4647357,-0.55060244,-0.19001909,-0.051629163,1.5083549,-0.4456439,0.33422074,0.6826475,-0.38038445,-1.9626908,0.9787998,1.36417,0.7430978,1.1339593,1.6786826,0.089159966,-0.074008524,-1.3114742,1.4403381,0.32379,0
Cloud/cloudy187.jpg,-0.017474562,1.0935222,-1.6446376,-0.9029057,-0.0864158,-1.1406817,0.1028309,-0.25229347,-0.05596558,0.2635869,0.45784226,-0.5079972,-0.8346696,-1.1081492,0.06331264,-0.78784657,1.2705151,-0.24498515,-0.30714753,-0.18219936,-1.4565668,-0.3105871,0.66772294,0.9425923,0.31772348,-0.6147325,1.8160188,1.5178112,-0.69613475,-1.381037,0.15490319,1.1860819,0
Cloud/cloudy188.jpg,-0.112062715,0.8997802,-0.84121054,-0.8797544,-0.5656399,-0.7340209,-0.48409712,0.24613999,-0.83108264,0.5876592,1.3484318,-1.3337474,-0.38224167,-0.698494,-0.19740123,-0.61745656,1.2975692,-0.4168755,-0.30624807,-0.10475143,-0.8945764,-0.8667933,0.6425374,1.0315703,-0.44784385,-0.23385948,1.3385653,1.6931589,-1.6766977,-1.0220133,0.7960913,2.01043,0
Cloud/cloudy189.jpg,-0.1728654,1.3919805,-1.516448,-0.7580397,-0.6611969,-0.13613151,-0.7492751,-1.1344486,-0.48323452,0.9677881,0.6178641,-0.57329935,-0.2074959,-1.8402654,1.1584466,-1.7187192,1.2002532,0.10321439,-0.602946,-0.31047517,-0.5775385,-0.46115777,0.38015723,1.8550543,-0.59180677,-0.4125575,0.63460094,2.0051684,-1.1831009,-0.68209046,1.0984926,1.2804916,0
Cloud/cloudy19.jpg,0.8288825,2.212231,-0.6544083,-1.0410898,-0.9657847,-0.54053044,0.36853623,0.88919574,-0.25987726,-0.02738566,0.2431356,-2.4455204,0.66557026,-1.258794,-1.1179819,0.1306342,2.3318822,-0.31515107,0.001354672,-0.8407497,-1.5817083,-1.9674863,0.25619477,2.2494452,-0.100080624,0.791402,2.0990362,1.7267565,-1.940679,-2.4373693,0.40622598,1.6503215,0
Cloud/cloudy190.jpg,0.7353233,1.5041895,-1.5367001,-0.54101545,-0.818762,-1.0043707,-0.34962833,0.73646533,0.44031566,0.113511935,-0.4616682,-0.71621835,-0.3069488,-1.2129145,-0.7810657,-0.1380783,1.7091665,0.1607849,0.32006347,-0.72333765,-1.4485749,-1.5331992,0.9887136,1.9833313,0.12724204,-1.0238056,2.5565298,1.6060338,-1.2634242,-1.7327462,1.1136189,1.4900668,0
Cloud/cloudy191.jpg,-0.2903837,0.42015636,-0.82893723,-0.96936905,-0.6072818,0.14804724,-0.46869135,-0.1205861,-0.59946156,0.88373715,0.6084794,-0.86134475,-0.3522983,-1.184282,0.06557326,-0.277731,0.2768685,-0.1699743,-0.21724623,-0.4441532,-1.3440784,-0.5720161,0.41316694,1.5085639,0.0124054365,0.29239762,0.56048715,1.4100933,-1.2531264,-1.1438599,1.0948282,0.9816987,0
Cloud/cloudy192.jpg,-0.5234912,0.6898683,-2.0979214,-1.5603001,0.7782804,-1.2257541,0.06214105,-1.9563292,0.19905359,0.58931047,1.7648702,0.6258761,-1.1139052,-0.46240348,1.1589328,-1.1541332,1.2245979,0.05240211,0.68988496,-0.62046826,-1.6467488,-0.6987449,1.7463009,0.61152846,0.7879459,-1.5690744,2.1115906,2.002712,-1.5215132,-1.009444,0.48316923,-0.22721195,0
Cloud/cloudy193.jpg,0.7226785,1.1172811,-0.640441,-0.8920211,-1.2005774,-0.9021869,-0.8131779,0.9905619,0.4895795,-0.04402324,-1.0895952,-0.09270008,-0.5908663,-0.5531049,-0.53238046,-0.0071034655,1.515201,0.7227371,0.20003821,-0.86389977,-2.0170643,-1.7510195,1.0015758,2.470622,0.68399024,-0.024922356,2.2052188,0.9349107,-1.3935804,-1.8603756,1.1913224,0.3244243,0
Cloud/cloudy194.jpg,-0.43762842,1.3320117,-1.901451,-1.944988,0.037823234,-0.5713959,-0.45103806,-0.77659965,-0.28301263,1.0493077,0.6643625,-1.1134332,-1.183484,-1.919456,0.9855241,-2.0547369,1.5605941,0.33491263,-0.9756524,0.17438163,-0.9803464,-0.9341593,-0.31934738,1.9464645,-0.43929192,-1.1145169,0.85941833,2.183619,-1.3503999,-1.3010293,0.87341356,1.663986,0
Cloud/cloudy195.jpg,0.56553495,0.58312815,-0.24047321,-0.11258177,-0.4282285,0.20101984,0.4370489,0.2812765,0.2902213,-0.32572114,-0.3156833,-0.9833745,0.060343683,-0.37248474,-0.89986765,0.05500058,0.81556726,-0.24048156,0.077089265,-0.56330395,-0.618526,-0.48075268,0.20904247,0.9449401,0.08559479,0.5270918,1.1564196,0.3566275,-0.6925405,-0.4923656,0.5862321,0.34020764,0
Cloud/cloudy196.jpg,0.5038249,0.87385225,-0.5936767,-0.6465524,-0.49997517,-0.48656154,-0.61743903,0.50898814,0.15160012,0.42661178,0.398162,-1.1130916,-0.29649568,-0.9900599,-0.74898267,-0.11226287,1.3289262,0.23663948,0.40144458,-0.81513315,-1.1628877,-1.4038377,0.6816911,1.564749,-0.34404057,-0.49467087,1.5154436,1.5193115,-1.7129623,-0.95369965,0.73763204,1.1523528,0
Cloud/cloudy197.jpg,0.14545867,1.3615685,-1.5180297,-1.4723392,-0.1751607,-1.1430569,-0.3007424,-0.4148686,-0.08185559,0.13551286,0.9862712,-0.13721898,-0.98280644,-0.5044768,0.42490637,-1.2781389,1.7609859,-0.18518838,-0.3901145,0.69843453,-0.8431664,-1.449936,0.8767101,0.6389256,-0.22334528,-0.97089195,1.6663692,1.2123437,-0.84516174,-1.6012409,0.5549112,1.6909708,0
Cloud/cloudy198.jpg,1.0038636,0.95668995,-0.45682847,-0.19790243,-1.3306383,0.25927693,0.41792774,0.6735753,0.50073767,-0.48792773,-1.2856989,-0.85597503,-0.26475582,-0.62646997,-1.1484925,0.116815925,1.2397548,-0.27508035,0.11983752,-0.9158338,-1.5214027,-1.1242113,0.17973149,2.0877125,0.70190674,0.95805806,1.8533856,0.2628198,-0.69981307,-1.7109851,1.0016596,0.16403686,0
Cloud/cloudy199.jpg,0.9133427,1.3741674,-0.55519414,-0.4990399,-1.5614861,-0.35358876,-0.9282041,1.9052042,0.06963669,0.59060276,-1.1632106,-1.3321735,0.82414997,-1.1583036,-1.1573769,0.67745703,1.2828856,0.08583551,-0.20129523,-1.020962,-2.4035082,-1.8556426,0.72125685,3.2670643,0.21534318,0.41561875,2.269041,1.5564823,-1.737325,-3.0737205,1.751346,1.8370177,0
Cloud/cloudy2.jpg,0.21410877,1.3237848,-1.6171902,-0.8651088,0.0051409677,-1.1611501,-0.17931466,-0.23681886,0.2971396,0.27318364,0.7071977,-0.8546452,-0.4386023,-1.0481255,-0.34995568,-0.6172728,1.8599484,-0.072265975,0.3370355,-1.1565707,-1.5554303,-1.0325551,1.1791697,1.6244184,0.19275904,-1.2803301,2.6821148,2.1789663,-1.9315702,-1.2277405,0.7718119,1.1780324,0
Cloud/cloudy20.jpg,0.96982676,1.9902191,-1.4867858,-0.41047972,-0.8229033,-0.24874365,0.45347238,0.46782383,0.3802338,0.13539143,-0.23389561,-1.3654321,0.7014945,-1.632211,-1.0951976,0.7195005,1.5842463,-0.37657577,0.6380097,-0.69853413,-1.0984986,-2.0177732,0.8818097,1.9929948,0.13260952,-0.41640338,2.1225805,1.5544372,-1.3425424,-1.7524159,1.3466384,1.3957559,0
Cloud/cloudy200.jpg,0.59168625,0.9874488,-0.7612689,-0.95961994,-0.91354907,-0.7008679,-1.0198357,0.8493475,0.38791484,0.5456369,-0.17038232,-0.85692036,-0.34202936,-0.91607887,-0.690151,-0.21765539,1.5939152,0.5849915,0.430916,-1.0280975,-1.8829643,-1.861677,0.83298945,2.3504977,-0.042249754,-0.713381,2.0064943,1.7522082,-1.8696516,-1.8853675,1.1226742,1.0307769,0
Cloud/cloudy201.jpg,-0.030701466,0.85362077,-1.382262,-0.7806766,-0.51841676,-0.37312582,-0.624068,-0.62462544,-0.21333516,0.84873337,0.86195457,-0.047404148,-0.43272588,-1.4375288,0.4771607,-0.5645611,0.4446022,0.064549804,0.44561768,-0.051579818,-0.44210538,-1.2488389,0.71118695,0.95935774,-0.41404924,-1.1444705,0.4990539,1.5921404,-0.8164005,-0.82606536,0.879153,1.1651214,0
Cloud/cloudy202.jpg,0.7000499,1.4529585,-1.538333,-0.5091827,-0.84319365,-0.98281944,-0.32408458,0.67118305,0.40440854,0.14513126,-0.41564065,-0.6730694,-0.33580342,-1.236324,-0.78358173,-0.08883944,1.6239306,0.08111228,0.3245105,-0.70148766,-1.3939352,-1.4795375,0.9473579,1.9351536,0.14753352,-1.0699981,2.45536,1.5976081,-1.2445052,-1.671993,1.128858,1.4915525,0
Cloud/cloudy203.jpg,0.63395447,0.93454003,-0.6124208,-0.86468834,-0.9577052,-0.66011226,-0.9945198,0.83005255,0.39277396,0.4398311,-0.28979188,-0.7602523,-0.30871534,-0.83507085,-0.68937737,-0.1550643,1.4853312,0.5733319,0.45589706,-1.0808291,-1.7930477,-1.760362,0.8050001,2.332528,0.013669588,-0.57921505,1.9448189,1.635612,-1.7669408,-1.7998309,1.070771,0.87265193,0
Cloud/cloudy204.jpg,0.50271386,0.89875036,-1.6010388,-0.90288943,-0.38948825,-0.736209,-0.49001968,-0.21480015,0.2660074,0.930977,0.43690506,-0.25634888,-0.56960267,-1.5788746,-0.5029311,0.19299117,1.13214,0.46410358,0.7729637,-0.9124528,-1.5501034,-1.4990741,1.2608321,2.0186598,0.23320344,-1.2687194,1.7063091,1.9024904,-1.8624585,-1.1424828,1.2490716,0.8128755,0
Cloud/cloudy205.jpg,0.7316601,1.5593107,-0.9457573,-0.7443618,-0.57279956,-0.57015866,-0.6212392,0.4184947,0.22258973,0.6317565,0.47047466,-1.308217,0.46103686,-1.4371716,-0.6253337,-0.09902648,1.5637053,0.18460453,0.49454957,-1.0190824,-1.2583643,-1.8568157,1.0426171,2.1877134,-0.38449746,-0.7978696,1.998229,2.2458575,-1.9849218,-1.6431363,1.1339738,1.6696148,0
Cloud/cloudy206.jpg,0.34681424,1.0289524,-1.0676068,-0.9176687,-0.3202332,-0.28309062,-0.01648897,-0.5177155,-0.26384395,0.65196174,1.366965,-0.8620018,-0.11529433,-0.9172189,-0.38918614,-0.28297696,1.3173014,-0.17982215,0.34540007,-0.42514175,-0.9251936,-0.985239,0.732458,1.0028585,-0.31484058,-0.35138705,1.0126247,1.6456847,-1.3574424,-1.3070995,0.49124116,1.1416736,0
Cloud/cloudy207.jpg,0.6872043,0.53399277,-0.895962,-0.26954305,-0.68932796,-0.17129219,-0.39316165,0.7146479,0.30311385,0.19657966,-0.63309973,-0.56772006,-0.34403288,-0.6633838,-0.65223324,-0.37277505,1.0122819,0.5659013,0.26707274,-0.54691154,-1.0487964,-0.97128975,0.59751415,1.6959417,-0.12789428,-0.20982933,1.6640977,0.7967098,-0.7500731,-1.136397,1.1120982,0.8200742,0
Cloud/cloudy208.jpg,0.5442521,0.96876705,-1.6954304,-1.0454115,-0.4789312,-0.7740795,-0.58733463,-0.14622115,0.24565831,1.0558968,0.48194283,-0.3047212,-0.5503186,-1.5961224,-0.5531822,0.15975596,1.2808744,0.4941659,0.66780484,-0.9009912,-1.8002071,-1.6158125,1.2865719,2.2404635,0.2440702,-1.2719738,1.8179452,2.0275018,-2.00158,-1.4896005,1.3448287,0.97032076,0
Cloud/cloudy209.jpg,0.5036243,1.1405618,-1.8528085,-0.3499329,-0.2915261,-0.32143298,0.482111,-0.97044027,0.010570014,0.56168574,0.96901447,0.115720056,-0.24592277,-1.3458173,-0.39395607,0.3647104,0.84492767,-0.7327461,0.3258609,0.037952296,-0.5163628,-0.9252167,0.80281925,0.6745147,0.23680662,-1.0488497,0.89637727,1.1162786,-0.7669654,-0.9319206,0.7770363,1.1534076,0
Cloud/cloudy21.jpg,1.0712892,1.1976346,-0.97442347,-0.51243174,-1.1175742,0.058465652,0.42545533,1.21127,0.19174221,-0.37112734,-1.0252228,-1.4819837,-0.7798693,-0.8552468,-1.2206388,-0.20193692,1.9288962,0.50048256,0.28830212,-0.522301,-1.5482378,-1.7585981,0.010343313,1.9917231,-0.031155322,1.0167122,1.9936452,0.30354676,-1.0905465,-1.7728543,0.71109885,0.7406282,0
Cloud/cloudy210.jpg,0.9282373,1.7268149,-1.131409,-0.60180104,-0.85446435,-0.8107102,-0.31066516,0.6394717,0.10596613,0.19849198,0.2575451,-1.1071694,0.18685946,-1.2076824,-0.88046044,0.12086878,1.8296977,0.36973327,0.72529376,-1.2477615,-1.4239348,-1.9221324,0.8111869,2.0825667,-0.106064245,-0.41334072,2.1480968,1.8479326,-1.7995645,-1.9775933,0.4196245,1.2782487,0
Cloud/cloudy211.jpg,0.8281299,1.2207738,0.51187754,-0.41304088,-0.27690992,-0.17059126,0.40266424,0.39127156,0.77999246,-0.4600765,-0.42525145,-1.7192589,0.927043,-0.33072382,-1.0079752,0.18867314,1.407839,-0.1928115,0.39491734,-1.3045529,-0.6148138,-1.0788181,0.16520533,1.755445,0.1741375,0.0852583,1.7703631,1.2328333,-1.4425439,-0.8222108,0.63618386,0.07919268,0
Cloud/cloudy212.jpg,-0.38191944,0.7029567,-1.6222931,-0.79695773,-0.012555584,-0.40159348,0.014454449,-0.946306,-0.49748445,0.7964771,1.5231607,-0.15557897,-0.5941747,-0.9998982,0.53655446,-0.5612868,0.57458216,-0.35417804,0.36949,0.03437756,-0.80303276,-0.59364486,0.9873217,0.27251264,-0.0069665154,-0.6851331,0.73157376,1.5305831,-0.7790297,-0.84305906,0.48990768,0.9741571,0
Cloud/cloudy213.jpg,1.1055121,2.4035103,-1.4941843,0.15610799,-1.8935058,-0.5503624,0.13611552,0.5353625,0.410168,0.32842928,-0.87593025,-0.7098155,1.467935,-2.2957525,-1.4359245,1.582727,0.90244,-1.027315,1.0697411,-1.8629661,-0.8802123,-2.2588887,0.8957251,3.0654166,0.9119537,-1.5720165,2.2689986,2.3165896,-1.285549,-2.4248142,2.08677,1.6310018,0
Cloud/cloudy214.jpg,0.20155992,1.4642856,-1.1785185,-1.1898808,-1.150716,-1.437515,-1.6903123,0.74446875,-0.682603,1.062995,0.9874861,-0.92325395,-0.33769736,-1.0443841,0.14502248,-0.6496348,1.9822317,0.08997245,-0.37791154,-0.39243382,-2.0009983,-1.9104015,1.3072357,2.471459,-0.52105314,-0.90228534,2.3617878,2.5407002,-2.7925038,-2.2301245,1.5196217,2.684246,0
Cloud/cloudy215.jpg,0.19779205,0.8171732,-1.4316752,-0.459124,-1.019146,-0.37785822,-0.5408353,-0.11237715,-0.29385337,0.8283869,0.3357494,0.021943249,-0.2653549,-1.5586815,-0.21604878,0.52236766,0.29823852,-0.4227085,0.6083237,-0.31212217,-0.85015273,-1.4571017,0.7540029,1.3037252,-0.017072711,-1.0798893,0.84442246,1.4470297,-0.89560467,-1.3565031,1.2546968,1.3305556,0
Cloud/cloudy216.jpg,0.6845781,1.6253791,-1.7664278,-0.18559557,-0.9739622,-0.19728836,0.33471146,-0.14425863,0.19527024,0.5635172,0.006419204,-0.6535125,0.5038935,-1.832595,-0.7775908,0.5721553,1.0431516,-0.86484474,0.20496413,-0.3083721,-1.0582066,-1.3875506,0.93060637,1.7575397,0.37414405,-0.65383404,1.5627223,1.4557285,-0.9300705,-1.5702835,1.526938,1.5502698,0
Cloud/cloudy217.jpg,0.5568265,0.589384,-0.8874384,-0.6977465,-0.71560514,-0.4580831,-0.5095607,1.1827838,0.04785637,0.20693162,-0.44559363,-1.1491016,-1.2084173,-0.9335005,-0.95942974,-0.22087628,1.3592447,0.70867115,0.46899375,-0.93453884,-1.4999483,-1.5249755,0.60825264,2.185897,-0.04439357,-0.22361034,2.1486175,1.1644187,-1.894099,-1.0343993,1.3594034,1.1413604,0
Cloud/cloudy218.jpg,0.6671609,0.7762965,-0.7976026,-0.63764685,0.14781848,0.08085653,0.70806056,-0.06944479,0.7763237,0.024385124,0.085828766,-1.1091028,-0.20924999,-0.5158367,-1.0047015,-0.29623896,1.503047,-0.06969005,-0.13247588,-0.14569111,-0.84018975,-0.99166185,0.572887,1.3253472,0.30850786,-0.15536788,1.5548342,0.46040294,-1.5607156,-0.31655267,1.3233438,0.6588707,0
Cloud/cloudy219.jpg,0.96986294,1.7962748,-1.2887489,-0.20305827,-1.1172407,-0.4944621,0.70493174,1.7937028,0.67165256,-0.511381,-1.4981195,-1.7341218,0.07273909,-0.9060565,-1.6942362,0.44733772,2.037202,-0.25944915,-0.014822504,-0.8159402,-1.4789304,-1.6472446,0.3814574,2.33708,0.73876864,-0.25002718,3.0262876,0.80779755,-1.2572417,-1.7892568,1.7627473,1.3982583,0
Cloud/cloudy22.jpg,1.3249626,1.8994818,0.0493134,-0.8084654,-2.1197112,-0.8713505,-0.80110306,1.6241835,-0.083546385,-0.39848924,-1.0288166,-1.0446423,-0.41156292,-1.2294421,-1.2197055,1.1304057,1.7209904,0.95161384,1.7566142,-2.1581903,-1.393896,-3.25795,0.84034777,3.509245,0.3466038,0.25890547,2.3687463,1.6201723,-2.5923321,-1.9431131,1.3025434,0.4240495,0
Cloud/cloudy220.jpg,0.19870184,0.7278837,-1.320301,-0.51827836,0.06385276,-0.3817618,0.27081817,-0.4474053,-0.069279,0.5198894,1.3518609,-0.5098878,-0.5394757,-0.66435224,-0.23455212,-0.39247063,1.1132296,-0.06780575,0.73478293,-0.6353727,-1.0403109,-0.9047882,0.5998441,0.69973207,0.050804675,-0.78447497,1.2332311,1.4208438,-1.4066405,-1.2780883,0.053792845,0.9079756,0
Cloud/cloudy221.jpg,-0.17570895,0.4892302,-1.0748825,-0.23193994,-0.6613106,-0.47330338,-0.27385953,0.32119188,-0.24891469,0.21406382,-0.39819542,-0.5496772,-0.7346188,-1.0190145,-0.09892902,-0.31478193,0.50825566,-0.06511556,-0.105406776,-0.57421863,-0.877149,-0.10741591,0.40448803,1.2408307,0.20014521,-0.32353652,1.312188,1.0519335,-0.6739025,-0.34392202,1.0741264,0.7802966,0
Cloud/cloudy222.jpg,-0.058229916,0.26869488,-1.2221452,0.27122554,-0.77881444,0.2007955,-0.048069667,1.8449974,-0.19631684,0.012557112,-1.6464874,-1.2384999,0.2949903,0.098642915,-0.08070772,-0.77834994,1.2055715,0.33031163,-0.6949421,0.90497243,-0.40850142,-0.8769623,0.5189735,1.0542629,-0.4097949,0.28950205,1.7961571,-0.46555334,-0.34085014,-0.27392423,2.4333844,1.4651077,0
Cloud/cloudy223.jpg,1.3443518,1.9435066,-1.7640381,-0.15878952,-0.8603637,-0.5199133,0.26297456,1.1632494,1.0696497,0.0948911,-1.3834591,-0.85005486,0.75983554,-1.1271333,-1.4723104,0.46061623,2.0758748,-0.1912049,-0.22854416,-0.6856661,-1.7056603,-1.9101985,0.6164208,2.718739,0.77985245,-1.0027149,2.9095743,1.117081,-1.1343309,-2.5872684,1.6373633,1.5552132,0
Cloud/cloudy224.jpg,1.1357484,1.9080949,-0.5932353,-0.32660145,-0.73098534,-0.21384233,0.08713883,0.6851178,0.5035708,-0.081775144,-0.45628533,-1.9249935,1.0364676,-1.3715434,-1.0663793,0.19055595,1.8108505,-0.14510253,0.25678653,-1.1519006,-1.3257905,-1.6064271,0.79561335,2.4255722,-0.18668313,0.38876277,2.435693,1.7473446,-1.626259,-1.6327093,1.0248297,1.2483319,0
Cloud/cloudy225.jpg,0.3989216,1.1789663,-1.0687649,-0.42118502,-0.231226,-0.1865366,0.012673356,-0.1273394,0.06818222,0.7840545,0.7837626,-1.0937423,0.56613404,-1.4476075,-0.73663765,0.53162366,0.8924374,-0.9071577,-0.15510455,-0.4538861,-0.9335339,-1.1125644,0.70518506,1.5182754,0.08721688,-0.8199819,1.2795829,1.7080197,-1.726559,-1.0208539,1.3143792,1.7478734,0
Cloud/cloudy226.jpg,0.4777794,0.3934225,0.33590418,-0.20612028,-0.25172943,-0.09837537,-0.22734709,0.08955423,-0.05061652,0.10884187,0.49488503,-1.17507,-0.036049645,-0.38590565,-0.67492455,-0.13446786,0.99231106,-0.0016464703,0.259606,-0.84191597,-0.33121282,-0.5866591,0.40956795,1.2798227,-0.27103925,0.2161267,0.9833582,0.9432491,-1.7029707,0.121304944,0.5821332,0.579237,0
Cloud/cloudy227.jpg,-0.117451146,1.0424404,-1.6152816,-1.1372486,-0.6627335,-0.3247636,-0.65285057,-0.26597813,-0.26437953,1.3363905,0.59233403,-0.61676264,-0.023330573,-1.7381588,0.40138242,-0.5573107,0.7464098,0.08736354,0.24662434,0.040643014,-0.94037205,-1.5298182,0.8043487,1.663167,-0.33891425,-1.2228569,0.79362166,2.018721,-1.0871804,-1.5639434,1.6039629,1.6168756,0
Cloud/cloudy228.jpg,-0.24000664,0.704044,-1.3838671,-1.0834353,-0.4791601,-0.7890277,-0.7182788,0.66634107,-0.41379234,0.66427034,0.25050837,-0.5914697,-0.6853219,-0.70568264,0.2654286,-0.8493,0.9654064,0.104546145,-0.4529333,0.71385026,-0.96823466,-1.2741084,0.76391387,1.1183859,-0.23747993,-0.7589944,1.3819132,1.1388702,-0.8037395,-1.3362535,1.4439099,1.9664128,0
Cloud/cloudy229.jpg,0.3720323,1.1043482,-1.188882,-0.95480716,-0.33684012,-0.32682937,-0.059473958,-0.48211533,-0.25528255,0.7019225,1.3815799,-0.8504074,-0.1167918,-1.0157247,-0.4208176,-0.21985188,1.3480169,-0.17428784,0.38555783,-0.4916735,-1.0193169,-1.0962603,0.7807117,1.0772913,-0.30362678,-0.47677016,1.1033036,1.7597395,-1.429741,-1.4430097,0.52786154,1.2340782,0
Cloud/cloudy23.jpg,0.08189725,0.42807496,-1.0146561,-0.46315148,-0.19508542,-0.35680693,-0.3652734,0.22320408,-0.16017142,0.61005527,0.15702602,-0.69545287,-0.25601676,-1.0803521,-0.115545094,-0.36479387,0.450841,0.39134333,0.28352994,-0.5411057,-0.8498321,-0.5192304,0.5118393,1.3400577,-0.18398151,-0.4716772,1.1228676,1.3503748,-0.8331566,-0.81882894,0.7463781,0.9667627,0
Cloud/cloudy230.jpg,0.418661,0.17943543,-0.46110296,0.0708462,-0.15605736,-0.040270243,-0.3482926,0.8404627,0.21790677,0.21661663,-0.5607244,-1.0541304,0.048319444,-0.30674443,-0.5052421,-0.7137966,0.9574447,0.47575125,-0.25325018,-0.36841577,-0.66366583,-0.23981833,0.19971634,1.3275971,-0.47121358,-0.034138113,1.4203764,0.6076119,-0.7187085,-0.4964022,0.8794561,0.96596485,0
Cloud/cloudy231.jpg,0.43381733,0.8841213,-0.722667,-0.6238889,-0.59543025,-0.1394093,-0.43756932,-0.23878574,0.24129912,0.51291543,0.5325883,-0.5568319,-0.34657913,-1.2250099,-0.46533504,0.08335394,0.99287516,0.14412759,0.9337612,-1.4686426,-1.3739809,-1.3817998,0.8348009,1.7423135,0.11546498,-0.5217768,1.3044873,1.7508731,-1.8336436,-1.0965922,0.6951963,0.36982977,0
Cloud/cloudy232.jpg,0.7220775,1.235953,-1.1766516,-0.4780941,0.35601217,-1.1324977,-0.20476308,-0.30348402,0.37629592,0.020902049,1.048845,-0.9008021,-0.4607454,-0.7859919,-0.5734326,-0.56821907,2.185449,0.28027096,0.46497196,-1.235826,-1.0206728,-1.0670148,0.84684753,1.2259145,-0.32066393,-1.0983446,2.373592,1.7915642,-2.2268755,-0.51809776,-0.19645134,0.9650888,0
Cloud/cloudy233.jpg,0.70922005,1.7808719,-0.6375816,-1.2092816,-1.2728361,-0.13510673,-0.03327959,0.93014413,-0.1614704,0.38896856,-0.3782398,-1.8062631,0.47129786,-1.4985721,-0.6331385,0.29198015,1.6686392,0.32532647,0.59472924,-0.6168885,-1.8728876,-2.53847,0.7357738,2.6647363,0.10180796,1.0007449,1.6809988,1.4437141,-1.6814849,-2.4541268,1.2077101,0.9390708,0
Cloud/cloudy234.jpg,-0.37623996,0.56198925,-1.4523079,-1.0804548,0.2995584,-0.8067148,-0.6258509,-0.5792972,-0.119960114,1.1473235,1.245077,0.110219285,-0.6247522,-0.54650766,0.850723,-1.2723594,1.0490358,0.47906923,-0.23492399,0.120971866,-1.588009,-0.36959025,1.0663649,0.9779741,0.08655372,-0.8604475,1.055137,1.5862606,-1.2131317,-1.4028243,0.56311715,0.9983998,0
Cloud/cloudy235.jpg,0.37062684,1.0523616,-0.91324896,-0.7059719,-0.18236923,-0.6408646,-0.29238266,-0.20411463,0.070998,0.45467308,0.8932321,-0.578527,-0.11331621,-0.9060134,-0.08634072,-0.38335207,1.2248695,0.44303465,0.7488072,-0.5861036,-0.87797546,-1.319192,0.9124236,1.0921822,-0.2165668,-0.5674393,1.1875181,1.5518429,-1.3458692,-0.97444296,0.18215093,0.7291845,0
Cloud/cloudy236.jpg,0.24138063,0.84122115,-0.7762418,-0.40442324,-0.23712735,-0.45684135,-0.25993177,0.17298183,0.024717717,0.2541285,0.5233499,-0.8309557,-0.3569057,-0.94934237,-0.33505395,-0.20487991,0.9648466,0.004268255,0.43024313,-0.77476,-0.9603724,-0.8639504,0.55955017,0.979182,-0.16290201,-0.41528958,1.329545,1.3904573,-1.1695851,-0.8335385,0.23218739,0.907381,0
Cloud/cloudy237.jpg,0.006628696,0.9593128,-1.5916361,-0.93662244,-0.6489506,-0.36948097,-0.74580485,-0.4253609,-0.20909932,0.9991136,0.52167344,-0.17551014,-0.22717598,-1.4680326,0.6167062,-0.83940685,0.7048261,0.24341103,0.19556059,0.25227898,-0.6738545,-1.391402,0.72716075,1.2423368,-0.5054677,-1.0558413,0.68106645,1.5911583,-0.61119765,-1.3483064,1.089214,1.3779014,0
Cloud/cloudy238.jpg,0.9609686,1.3745756,-1.2695425,-1.1055545,-0.81992644,-0.6732406,-0.7005551,0.817525,0.57405573,0.4575069,-0.6188319,-0.7659887,-0.39274552,-1.0624595,-0.45680767,-0.580521,2.0346727,0.80777395,0.14585024,-0.6739072,-2.2630084,-1.991176,0.80154026,2.6861541,0.03386887,-0.37982607,2.4652047,1.5618767,-1.5464047,-2.7088687,1.0014529,1.1171274,0
Cloud/cloudy239.jpg,1.0792049,1.7844429,-0.81004,-0.49440172,-0.55351186,-0.70967895,-0.3032028,0.4470993,0.32606053,-0.04777395,0.3595263,-1.399669,0.046577707,-1.3309917,-0.94668156,0.11980528,1.9629197,0.28364646,0.8832966,-1.4066803,-1.0775415,-1.9785931,0.65093327,1.8898051,-0.5034077,-0.52892214,2.197808,1.9731209,-2.0317106,-1.3687005,0.18266648,1.2074039,0
Cloud/cloudy24.jpg,0.26410303,1.1290505,-1.9383998,-0.17865327,-0.4164617,-0.3744467,0.12998311,-0.88256896,-0.21071234,0.7731183,1.2129852,0.04907195,-0.29398382,-1.6285589,-0.3191021,0.592144,0.76356393,-1.0730537,0.3616019,-0.17693508,-0.690977,-0.9948539,1.0012406,0.6652901,0.06024955,-1.3377138,0.99366874,1.4702535,-1.2705054,-0.7637035,1.059913,1.5865431,0
Cloud/cloudy240.jpg,1.1535329,2.8788204,-0.2509428,-0.9274615,-0.03486777,0.094968565,2.3357227,-0.8664227,1.5451463,-0.9000006,-1.4746914,-0.91704106,2.2330887,-1.1982021,0.097990744,0.9738775,1.1993476,-0.83148754,0.04050698,0.94083506,-0.10457769,-2.2441745,1.0629302,2.048088,1.999755,1.1176499,1.3254822,-0.14332809,-0.20118448,-0.8883291,1.6523015,-0.8547378,0
Cloud/cloudy241.jpg,0.09233678,0.86037916,-1.365125,-0.83267164,-0.15916345,-0.95653737,-0.51890093,-0.26238316,0.33488008,0.9278045,0.5358339,0.11174638,-0.41232625,-0.53652865,-0.042680625,-0.48388162,1.5633043,-0.005671248,-0.40952384,-0.51221544,-2.304361,-0.4588299,1.4220375,1.7960136,0.79508305,-0.8758105,2.052639,1.6537452,-1.7720997,-1.7255864,1.2520173,0.90564287,0
Cloud/cloudy242.jpg,0.6679871,1.1967005,-1.1203587,-0.63251144,-0.28080428,-0.4443865,-0.2305122,-0.11902095,0.3081202,0.55168414,0.70013595,-0.92604804,-0.011415184,-1.2611064,-0.67384607,-0.09700515,1.5082737,0.2489721,0.8689189,-1.1458958,-1.0831574,-1.4534118,0.92049557,1.6207682,-0.27160007,-0.95032895,1.6654621,1.9188346,-1.7707522,-1.1761608,0.7046444,0.9854932,0
Cloud/cloudy243.jpg,0.2543849,0.6249735,-0.46565437,-0.36643493,-0.37051082,-0.1572353,-0.29769748,0.07344842,-0.2668119,0.37552863,0.76461947,-1.0736767,-0.042921737,-0.7448379,-0.36468545,-0.15680914,0.851208,-0.19117,0.36881503,-0.560552,-0.6172326,-0.8025272,0.43024224,0.9190066,-0.5420864,-0.104946494,0.987209,1.363835,-1.1837758,-0.74426484,0.43858168,1.0781257,0
Cloud/cloudy244.jpg,0.47052154,0.8267796,-0.8442798,-0.45307654,-0.48031297,-0.26799974,-0.3108447,0.2969776,0.25217316,0.40340102,-0.20724472,-0.45197326,0.27472308,-0.6894088,-0.22889695,-0.33515447,0.8872918,0.34240648,0.13345453,-0.4548722,-0.9869443,-0.87345225,0.6438268,1.5753905,0.055240378,-0.3656444,1.3394392,1.0953052,-0.72553957,-1.4317715,0.9026186,0.7889739,0
Cloud/cloudy245.jpg,0.75552934,0.99003935,-1.4208788,-0.59932005,-0.37691903,-0.78940845,-0.73935705,-0.06853331,0.16162913,0.54819554,0.505537,-0.28703353,-0.42985073,-1.1606295,-0.32393163,-0.43703115,1.3534279,0.7137764,0.7110127,-0.68961686,-0.67973524,-1.5865717,0.79350924,1.6856792,-0.5320048,-1.4138602,1.6179692,1.7194966,-1.4893751,-1.0427607,0.64956754,1.2379216,0
Cloud/cloudy246.jpg,0.1356045,1.1209035,-1.5646079,-1.2635661,-0.3269201,-0.96492195,-0.29869574,0.050086778,-0.1661256,0.59765273,0.7057364,-0.68603307,-0.76323533,-1.2640853,-0.21387154,-0.26225027,1.30327,0.2660889,0.31850284,-0.2188485,-1.3306292,-1.476077,0.90426993,1.3535086,0.025093246,-0.8293088,1.580497,1.6507894,-1.3624568,-1.3287227,0.7855176,1.2257826,0
Cloud/cloudy247.jpg,0.23174824,0.89048964,-1.3007185,-0.82861996,0.11807075,-0.5555549,0.36356047,-0.9638328,-0.20095406,0.5048185,1.3123212,0.044307366,-0.16891739,-0.55757624,0.18814555,-0.22919609,0.8512534,-0.18264756,0.61962354,-0.116958186,-0.5014535,-0.9161591,1.0192019,0.5319568,0.15975265,-0.8072412,1.0951034,1.351456,-0.874612,-1.1759481,0.49103653,0.72907877,0
Cloud/cloudy248.jpg,0.042276777,0.83769757,-1.3926493,-1.1682533,-0.2655397,-0.8703758,-0.69174904,-0.115452975,0.15337199,0.43286675,0.17558743,-0.21690401,-0.82946706,-0.93251735,0.31442094,-1.0273725,1.1049062,0.3633113,-0.22205059,-0.058448747,-1.3064644,-0.91292185,0.8260499,1.2411993,-0.062154215,-0.8150551,1.6248949,1.4141198,-0.72142386,-1.227042,0.77049696,0.94843626,0
Cloud/cloudy249.jpg,0.061457418,0.70628095,-0.90727997,-0.7675831,-0.113777824,-0.4199077,-0.4661636,-0.2346152,-0.015952721,0.6462376,0.75425947,-0.35120404,-0.12252917,-0.8648724,0.18178633,-0.40493575,0.6818573,0.17789762,0.29775882,-0.16795588,-0.7480681,-1.0017333,0.7305379,0.7820386,-0.24455771,-0.7093804,0.79889286,1.3449454,-0.82522786,-0.91264766,0.48705304,0.8431084,0
Cloud/cloudy25.jpg,0.24787146,1.1371915,-1.37302,-0.501713,-0.8654251,-0.53737175,-0.26151654,-0.10980846,0.020828944,0.67764467,0.4728855,-0.39941862,-0.099508286,-1.4220842,-0.5357509,0.4524728,0.850613,-0.7417766,0.32682508,-0.5380009,-1.1656759,-1.2812924,0.87364304,1.3472273,0.26022837,-1.1188849,1.3693156,1.702955,-1.1921592,-1.3547784,1.2466547,1.3428329,0
Cloud/cloudy250.jpg,-0.17921564,0.6612402,-0.89588654,-0.28920788,-0.83734465,0.29541585,0.5012862,1.1579518,-0.24035254,0.08257148,-1.3520087,-1.1450541,0.3642614,-0.4732065,-0.043894656,-0.32871377,0.6323527,-0.40514332,-0.49164042,0.33358803,-0.8744689,-0.76336473,0.14697589,1.3629059,0.4843678,0.56974876,1.3373141,0.09661142,-0.08171237,-1.4639567,1.8600711,1.0631664,0
Cloud/cloudy251.jpg,0.4371,1.5838491,-1.3675587,-1.4272047,-0.3200133,-1.2237421,0.034928113,0.44580895,0.042993534,0.24279132,0.48525378,-1.3220006,-0.4115609,-1.044264,-0.58998865,-0.40794662,1.9632049,0.6766201,0.64304876,-0.69649816,-1.2831602,-1.9145939,0.88136023,1.9990185,0.1922767,-0.76474124,2.2428226,1.9089346,-1.8153841,-1.6147372,0.73675203,1.1420714,0
Cloud/cloudy252.jpg,0.5968499,0.8218806,-0.93948543,-0.23964134,-0.7861942,-0.32233673,-0.3061144,0.63006645,0.23813099,-0.0019171946,-0.6051743,-0.54869765,-0.067858115,-0.7228315,-0.5663213,-0.2062343,0.9633297,0.1476894,0.17657866,-0.41654658,-0.94641405,-0.968381,0.67006636,1.3658538,-0.12129898,-0.18049759,1.6899079,0.82180804,-0.4924299,-1.2309102,0.95565265,0.9639209,0
Cloud/cloudy253.jpg,-0.549253,0.7932184,-1.9519775,-1.0034683,-0.21521933,-0.4921369,0.16851662,-0.1878938,-0.49788013,0.69966894,0.71381164,-0.4852187,-0.8439003,-1.0803838,0.14096013,-0.37123513,0.7541906,-0.9435818,-0.6645767,0.50113934,-1.2202289,-0.64875984,0.8023496,0.72462666,0.47349945,-0.7797511,1.3174621,1.1953905,-0.9277544,-1.1240077,1.527749,1.8055933,0
Cloud/cloudy254.jpg,0.26114166,1.2832055,-1.3439445,-0.69820726,-0.836853,-0.66238546,-0.27371094,0.48472798,-0.06540191,0.3357434,0.18318468,-0.8773572,-0.4729451,-1.3078468,-0.54724574,0.07744601,1.219461,-0.25303847,0.33586174,-0.4287653,-1.2305347,-1.4488652,0.8721475,1.4124116,0.00034131273,-0.6802649,1.7695315,1.5400803,-1.2745346,-1.3313904,1.2022787,1.5176321,0
Cloud/cloudy255.jpg,-0.5079311,0.4647107,-1.3775325,-0.75897944,-0.24129626,-0.9712168,-0.5335573,-0.19402607,-0.63134503,0.44134977,1.3011018,-0.35993382,-1.0590152,-0.36954576,0.22484578,-0.5868457,0.9685519,-0.104547575,0.67809397,-0.66958714,-0.9079201,-0.6301307,1.117816,0.687547,-0.073007375,-1.151769,1.7198637,1.8604106,-1.5434273,-0.70566624,0.89016,1.1199914,0
Cloud/cloudy256.jpg,0.83881086,0.50733596,-0.063499704,0.038643688,-0.6903272,0.021242585,-0.19338326,1.1093221,0.5509726,-0.10044867,-0.7700087,-1.2260504,-0.00021834671,-0.21902701,-1.3242824,-0.14680953,1.3842685,0.4331022,0.2828843,-1.3952206,-1.0978904,-0.771822,0.27557647,2.1343675,0.11945906,0.045965035,1.9122553,0.7888596,-1.5350174,-0.8481161,1.1375799,0.51757205,0
Cloud/cloudy257.jpg,-0.06863725,0.69870657,-1.3431435,-0.573085,-0.32661772,-0.25337535,-0.14489883,-0.7001561,-0.23251861,0.67967534,0.9727769,-0.014700677,-0.37541535,-1.301618,0.29055628,-0.24790409,0.22358142,-0.05031681,0.8585685,-0.22165215,-0.45553687,-0.9694626,0.8533287,0.5461141,-0.1446718,-0.7905656,0.44162065,1.3590939,-0.54856014,-0.7558799,0.5312172,0.78200585,0
Cloud/cloudy258.jpg,-0.05228534,0.8693536,-1.4835321,-1.2505738,-0.58128196,-0.5230246,-0.8340755,0.10466713,-0.62227637,1.152404,1.0040127,-0.492976,-0.4304079,-1.3697791,0.33574036,-0.36810806,0.64000976,0.31140837,0.5093442,0.1694978,-1.0049385,-1.8102579,0.9665677,1.347247,-0.5459399,-0.8952759,0.8917616,1.8376974,-1.2384431,-1.7672164,1.2129685,1.8515215,0
Cloud/cloudy259.jpg,0.100143835,0.81401044,-0.6298589,-0.9066764,-0.87402916,-0.5811711,-1.0893068,0.8539409,-0.7152523,0.8126922,0.93460274,-1.0520157,-0.12976384,-0.7169306,-0.2134707,-0.0050045885,1.0005964,0.40349108,0.8704758,-0.69268394,-0.94874084,-2.0848653,0.9514143,1.7298918,-0.5702163,-0.6637586,1.3739331,1.9417039,-2.1464202,-1.4958396,1.3261148,1.7050412,0
Cloud/cloudy26.jpg,0.24368028,1.1037654,-1.4604656,-1.0220162,-0.20946938,-0.29526713,-0.09793844,-0.34246773,-0.31751382,0.9382524,1.3441086,-1.1004834,-0.24894264,-1.4090129,-0.34651428,-0.21594766,1.329457,-0.15477362,0.23446272,-0.31719676,-1.3465738,-1.1996728,0.93419904,1.3143696,-0.32852194,-0.41171163,1.2529474,1.8462961,-1.7659688,-1.3731639,0.86252564,1.5832629,0
Cloud/cloudy260.jpg,-0.142802,0.52316487,-1.4504348,-1.0483649,-0.16077074,-0.52381927,-0.44361877,-0.6110285,-0.17402023,0.8617334,1.0098863,-0.26143667,-0.6262534,-1.045097,0.2210014,-0.45458043,0.7153933,0.083792284,0.38299108,-0.40381703,-1.1969855,-0.8244669,0.9914887,1.1068974,-0.03854739,-0.95346236,1.1884547,1.7403629,-1.2733365,-1.0027716,0.94178665,0.82966954,0
Cloud/cloudy261.jpg,0.82626647,1.5551788,-1.187763,-0.7624353,-0.6242504,-0.14076886,-0.4510868,0.4028066,0.48364663,0.99314696,0.14632884,-1.0967282,0.7821964,-1.309068,-0.65088993,-0.055542223,1.7464857,0.15235856,0.15174806,-1.0385495,-2.2046983,-1.6057235,1.0724876,2.6682389,0.115369245,-0.45975882,2.080665,2.1135569,-1.9084795,-2.7027302,1.3539125,1.4270556,0
Cloud/cloudy262.jpg,0.9850564,1.6062484,-0.9241011,-0.5048218,-0.91290915,-0.7510015,-0.2789114,1.3191793,0.24955513,-0.14504552,-0.4920497,-1.5669467,-0.0781516,-1.2283901,-1.3139151,0.287556,1.8141998,0.48134637,0.70854765,-1.1545626,-1.1159744,-2.0392938,0.7833744,2.2047427,-0.15630682,-0.34560952,2.4714527,1.5210524,-1.7071395,-1.2762868,1.057163,1.3474259,0
Cloud/cloudy263.jpg,0.01834797,0.7470669,-1.3036035,-1.1088656,-0.5775074,-0.52851677,-0.7110117,0.0001164563,-0.3815249,0.9076962,0.9964168,-0.41639584,-0.32093012,-0.9634898,0.22035968,-0.5063624,0.6852005,0.45618936,0.8053801,-0.18207523,-0.9948379,-1.5861517,0.9549208,1.2292507,-0.4078039,-0.8214859,0.9766112,1.8002251,-1.0271395,-1.7294476,0.8345986,1.2815645,0
Cloud/cloudy264.jpg,1.3972272,1.4105082,-0.054235473,-0.7417596,-1.7265122,-0.593263,-1.1580708,1.8591307,0.387533,0.14752612,-1.4549986,-1.0693265,0.10739221,-0.86533505,-1.2076645,0.4370817,1.9939363,1.2075684,0.710222,-1.778382,-2.3032372,-2.5861125,0.79101175,3.8093476,0.23643221,0.43958402,2.5337434,1.4289476,-2.3743203,-2.6102011,1.4092836,0.6453682,0
Cloud/cloudy265.jpg,0.13852626,1.4635953,-1.5022907,-1.3163253,-0.23624396,-1.0656269,-0.33554792,-0.86201143,0.1262067,0.016976014,0.95493746,0.13327762,-0.9482853,-0.8328196,0.7408756,-1.5432544,1.3264294,0.36964476,0.3673036,0.022221707,-0.38726005,-1.351703,0.45727742,0.7610527,-0.22847092,-1.2349758,1.1065879,1.5840569,-0.36431947,-1.453797,-0.2452428,0.8548094,0
Cloud/cloudy266.jpg,0.4876076,0.8352536,-0.22251566,-0.5711504,-0.13880225,0.11002055,0.31104887,0.40672028,0.1732643,-0.04440926,-0.21619263,-1.5953658,0.2468591,-0.59452075,-0.58283716,-0.16456267,1.1432852,-0.19125439,-0.27339888,-0.08040935,-0.5584769,-1.0529091,0.39500457,1.5617526,0.0003009066,0.50409603,1.4500808,0.6193214,-1.32569,-0.36942765,1.3527331,0.86166894,0
Cloud/cloudy267.jpg,0.13512032,0.8384737,-1.1436894,-0.75452393,-0.32855663,-0.3434959,-0.37217903,-0.4377637,-0.0439201,0.6863994,0.8750412,-0.41870636,-0.20912118,-1.090743,0.042251706,-0.34442094,0.7877883,-0.037801076,0.49410105,-0.3257155,-0.8547336,-1.0795164,0.7564081,0.9234759,-0.2827263,-0.7746225,0.9266657,1.5987943,-0.9132787,-1.1626136,0.58036196,0.96200776,0
Cloud/cloudy268.jpg,0.17605472,-0.1819984,-0.38277656,0.16706136,0.06675789,0.7523579,0.6461497,-0.7747595,-0.073799126,0.10903458,0.28825384,-0.5148877,-0.38769156,-0.19809964,-0.35088164,-0.7191467,0.6174126,-0.4780451,-0.54261875,0.001819619,-0.27483928,0.82193494,-0.072590955,0.33099446,-0.11539786,0.81722736,0.15616652,-0.15073505,-0.4663031,0.20155334,0.35226616,0.30980042,0
Cloud/cloudy269.jpg,0.43361259,1.0513836,-0.9765365,-0.68715847,-0.30014274,-0.5202282,-0.2826358,0.047155537,-0.06840797,0.30220807,0.7531717,-1.0418755,-0.40674418,-1.2339315,-0.48678005,-0.13267009,1.2288313,0.26701912,0.90145886,-1.0039502,-0.716045,-1.504967,0.7978595,1.2956396,-0.3721586,-0.6833435,1.5267909,1.7168291,-1.6478758,-0.6677395,0.5428819,0.9912664,0
Cloud/cloudy27.jpg,0.8052561,1.4544859,0.58367556,-0.4126985,-0.47582874,-0.4466368,-0.110481456,1.2146163,0.61049837,-0.5018498,-0.22252664,-2.5338802,0.97864324,-0.20921566,-1.4434433,-0.03499596,2.1160421,-0.24453843,0.06617257,-1.3523798,-0.67900664,-1.4132984,0.6199648,2.1543913,-0.22063102,0.031758327,2.5859945,1.5157461,-2.3549244,-0.5276874,1.4082938,1.1842238,0
Cloud/cloudy270.jpg,0.3309959,1.3238925,-1.794546,-0.79097855,-0.4084271,-0.6802865,-0.566556,-0.24563372,-0.13640441,0.9116331,1.1503589,-0.5210822,-0.23160931,-1.5762155,0.14984527,-0.4553574,1.2237141,0.4170308,0.97695625,-0.59959483,-1.2994837,-1.7769758,1.2954571,1.4358615,-0.4235522,-1.0305501,1.5527979,2.2212186,-1.5878924,-1.6472845,0.5572069,1.4649839,0
Cloud/cloudy271.jpg,0.08203756,0.9141053,-1.350603,-0.75001603,-0.61107016,-0.90793073,-0.52513474,0.6392411,-0.09088528,0.2939145,-0.22288102,-0.7551686,-0.8093523,-1.2749087,-0.22557613,-0.2123345,0.98000664,0.34596455,0.46103707,-0.6886324,-1.2714354,-1.1731849,0.90679574,1.5482315,0.006484013,-0.7399658,2.0015764,1.6135089,-1.1381289,-0.9756978,1.125427,1.1030492,0
Cloud/cloudy272.jpg,0.7186685,1.4182134,-1.0759219,-0.5965939,-0.3975647,0.48801723,1.0072436,0.3363645,0.38513675,-0.0018502139,-0.29406074,-1.7211044,0.3783971,-1.0572582,-0.8354013,-0.096662365,1.5769603,-0.28618664,-0.19670695,0.18719514,-1.2397963,-1.4791894,0.5722795,1.5868766,0.3180685,1.088994,1.5275958,0.3797251,-0.96615195,-1.2049215,1.2216736,0.8228062,0
Cloud/cloudy273.jpg,0.7782185,0.8310824,-0.9585905,-0.07311577,-0.38902423,0.36661077,0.7505344,0.3753438,0.4277504,-0.26491788,-0.7579753,-1.0640659,0.32515526,-0.56124645,-0.7974568,-0.21726823,1.1046461,-0.018850364,0.046718612,-0.055685543,-0.56331927,-0.78213793,0.3828644,1.1740353,-0.04135802,0.48384154,1.5356135,0.19335675,-0.33201638,-0.8173418,1.0795654,0.6466701,0
Cloud/cloudy274.jpg,0.4715641,0.74914753,-0.8512452,-0.5099938,-0.32397813,-0.32744986,-0.6146413,0.18385296,0.1435298,0.67579275,0.58312374,-0.9659077,-0.12920606,-1.1779096,-0.5961085,-0.2187702,1.0639501,0.4513614,0.71366286,-1.186596,-1.0782089,-1.1766042,0.77999806,1.7235888,-0.31478426,-0.75548434,1.430052,1.8260432,-1.7175632,-0.9090399,0.71854997,0.9830159,0
Cloud/cloudy275.jpg,-0.015944919,1.4610593,-1.8382446,-1.3859313,-0.61020184,-0.6533684,-0.42421687,-0.512903,-0.5611513,1.1372156,1.358852,-0.38101417,-0.23211426,-1.467727,0.775808,-0.9055766,1.1049474,0.10343167,0.39439085,0.7346592,-0.81163424,-2.0758848,1.2355096,1.2311696,-0.43303263,-0.8427946,0.85267293,1.855238,-1.0763576,-1.8797928,1.2220812,1.9638652,0
Cloud/cloudy276.jpg,0.33657563,0.54983896,-0.19932318,-0.20525256,-0.7293777,-0.026789228,-0.19066593,-0.04211668,0.21878111,0.06917553,-0.29343015,-0.6539625,-0.15987168,-0.66068,-0.42990738,-0.22410345,0.8494227,-0.49040002,-0.63407576,-1.2834156,-2.1106074,0.26092327,0.08800134,1.8269317,0.62031806,0.9405761,1.3803701,0.96240807,-1.2268739,-1.4364549,0.14901643,0.1448562,0
Cloud/cloudy277.jpg,-0.049589902,1.2396613,-1.4563012,-1.4432584,-0.32547563,-0.8515006,-0.81543785,-0.7284175,0.02595807,0.6001454,0.83908975,-0.08453598,-0.74827874,-1.2220685,0.8353546,-1.4205539,1.118238,0.23700419,-0.21153231,0.49845818,-0.5680971,-1.4924619,0.59494215,0.9913534,-0.48333243,-1.2409399,0.8121741,1.5963831,-0.6422579,-1.1272194,0.624461,1.2917535,0
Cloud/cloudy278.jpg,0.27064925,0.327871,-0.34483528,-0.059557088,-0.17474535,-0.05364679,-0.058334503,0.028178927,0.050644703,0.035995625,0.09864919,-0.6982675,-0.056175098,-0.5182996,-0.32666668,-0.21506849,0.5296983,-0.044104353,0.21091366,-0.40111345,-0.2819998,-0.3013565,0.27858114,0.60451126,-0.31718078,0.004101784,0.83012295,0.6958487,-0.49089935,-0.14804572,0.31810322,0.47593394,0
Cloud/cloudy279.jpg,-0.141454,0.6279492,-1.828741,-0.78621507,-0.14239748,-0.3573838,0.098176695,-1.235277,-0.2941718,1.1313875,1.6412274,0.3850384,-0.53552485,-1.1291655,0.40654027,-0.047711276,0.5035948,-0.12504606,1.0367911,-0.3244703,-1.1502695,-1.088287,1.5484649,0.71589684,0.38899297,-0.9839847,0.84902537,1.5987968,-1.3498074,-1.007591,1.0422912,0.5555858,0
Cloud/cloudy28.jpg,1.0545049,1.5321507,-0.6071781,-0.83803535,-1.0404035,-0.41679263,-0.8732338,1.1917267,-0.108234435,0.68440413,0.12236693,-1.9096061,0.7541242,-1.3316826,-1.0947872,0.24651328,1.8887777,0.7345104,0.8971064,-1.4951282,-1.7012029,-2.3312771,0.98613906,2.9195747,-0.7135444,-0.04068555,2.2559566,2.327739,-2.433895,-2.3597112,1.1892775,1.6595849,0
Cloud/cloudy280.jpg,1.0605531,1.7160468,-0.8479949,-0.5407241,-0.47765538,-0.73243284,-0.75494534,0.4335785,0.23786521,0.6975236,0.8579499,-0.9913129,0.30532342,-1.3059276,-0.665282,0.13275126,1.8881841,0.5647735,0.8584382,-1.5107852,-1.4985967,-2.1964955,0.77568996,2.2980287,-0.356182,-0.9537339,1.8758678,2.3348954,-2.5739472,-2.0294178,0.19897404,1.4500439,0
Cloud/cloudy281.jpg,-0.63980806,0.7235695,-1.493901,-1.1278032,0.30484155,-1.3863763,-0.619626,-0.095277116,-0.59809935,0.69296956,1.9898323,-0.41366616,-0.9447021,0.097112514,0.9063081,-1.3661169,1.636059,0.53070265,0.59572107,-0.21667169,-1.4858991,-0.9472668,1.2194542,0.48442295,-0.1687766,-1.0978357,1.7967645,1.9964012,-1.8211719,-1.4891198,0.0008812547,1.212595,0
Cloud/cloudy282.jpg,0.06658189,0.6134895,-1.2038264,-0.71352625,-0.25242463,-0.34385923,-0.41716874,0.029139457,-0.1853213,0.7206081,0.8278394,-0.6383917,-0.59890354,-1.1436052,-0.21326211,-0.15889561,0.72872305,0.014740742,0.4399265,-0.362164,-1.0027013,-1.1024565,0.6052062,0.91203105,-0.3200332,-0.79170465,0.98641753,1.4818722,-1.1830746,-1.0187168,0.63259983,1.2477846,0
Cloud/cloudy283.jpg,1.0103954,2.0478246,-0.88221776,-0.696581,-0.5777504,0.008816488,0.77391845,-0.31076583,0.56384313,-0.09345568,-0.33903918,-1.3840969,0.96751094,-1.5209177,-0.4398079,0.18954836,1.7078809,-0.27060908,0.254273,-0.19838065,-1.0025882,-1.8003958,1.0752549,1.9874232,0.310811,0.762734,1.7534885,1.019427,-1.1260297,-1.1202192,1.1658452,0.4241462,0
Cloud/cloudy284.jpg,0.26995403,0.8602317,-0.6309271,-0.7505387,-0.49560553,-0.49580413,-0.54546094,0.36058664,0.07755917,0.537384,0.37334868,-0.9410798,-0.037993237,-0.95411944,-0.487687,-0.20795178,1.0032809,0.2640642,0.27675232,-0.9864013,-1.335585,-0.9567175,0.6561886,1.6710532,0.0037280507,-0.38331303,1.3601567,1.6754359,-1.426827,-1.2821676,0.6541896,0.90372396,0
Cloud/cloudy285.jpg,0.05713443,1.7788098,-1.2288066,-1.1312683,-0.78481406,-1.9298451,-1.1502353,0.58142525,-0.76726013,0.24687472,1.5785756,-0.952559,-0.8149643,-0.662141,0.14732839,-0.6047564,2.3638134,0.31235296,0.7731095,-0.89483833,-1.5581849,-2.0760326,1.558467,1.6299621,-0.49187854,-0.96062267,2.7189658,2.5736876,-2.9169598,-1.7073138,0.49568322,2.1045263,0
Cloud/cloudy286.jpg,0.37431282,1.2126491,-1.1632367,-0.8518498,-0.7641288,-1.0934957,-1.1702359,0.45916447,-0.20620537,0.9286309,1.0081758,-0.5959675,-0.28717333,-0.78013253,-0.08604878,-0.45479116,1.7632061,0.36485174,0.37565476,-0.6144874,-1.7762538,-1.6944565,1.3199922,1.9793692,-0.26729557,-1.0305935,2.0353193,2.2428312,-2.275426,-1.9934704,1.0389704,1.8147513,0
Cloud/cloudy287.jpg,0.47044823,1.0976844,-1.4983233,-0.73420066,-0.9164804,-0.27378005,-0.8259079,0.03640697,-0.089884356,1.207159,0.69975257,-0.51845235,-0.02506075,-1.7341557,-0.5025371,0.29794818,0.9499472,-0.03587375,0.6418001,-0.9739974,-1.7437373,-1.6173269,1.1915549,2.1174884,-0.19447213,-0.99879545,1.4746802,2.2637749,-1.8648105,-2.0517342,1.4485366,1.6492174,0
Cloud/cloudy288.jpg,0.18403417,0.5200503,-0.4973531,-0.3722446,-0.22224756,-0.38755128,-0.27603978,-0.047646232,0.21203972,0.16588683,0.29925844,-0.4891327,-0.13736588,-0.642189,-0.25697547,-0.07489314,0.61797833,-0.011617828,0.42512393,-0.6438377,-0.64161664,-0.6344904,0.41421577,0.6079722,-0.056539126,-0.5310495,0.89165723,1.0790614,-0.61498195,-0.49401024,0.092304416,0.27265888,0
Cloud/cloudy289.jpg,0.14958717,-0.034551233,0.9848588,-0.8012866,0.159794,0.6667662,0.025106192,0.020036887,-0.51651686,0.92761034,0.76171815,-1.1509649,0.50024277,-0.023837604,-0.38795367,0.2989394,0.5193652,0.028539361,-0.84483004,-0.5002552,-1.0437126,-0.40737948,-0.23932597,1.8631687,0.39087364,1.3135424,-0.18914491,0.28150254,-2.6079032,-0.59920156,0.94252294,0.34915984,0
Cloud/cloudy29.jpg,1.385491,2.2585711,-0.536697,-0.7450767,-1.3215111,-0.34228814,0.3480684,1.1510583,0.6627973,-0.6061895,-1.5105808,-1.9580529,0.16936067,-1.2296147,-1.0121263,-0.26986805,2.7848535,0.78181255,0.2096706,-1.2089329,-2.117706,-2.170425,0.23318163,3.0787117,0.3494113,1.4717555,2.6148958,0.8871455,-1.5981832,-2.179394,0.44385803,0.11416079,0
Cloud/cloudy290.jpg,0.19713041,0.5580424,-1.0830357,-0.17651081,-0.2968968,-0.065630384,-0.103700414,-0.08430383,0.17290135,0.6124157,0.32915956,-0.2988193,0.08032127,-0.80711114,-0.24591272,-0.32573408,0.5329651,-0.041883737,0.34145746,-0.33400992,-0.6540847,-0.48896992,0.6469947,0.8737562,-0.007243355,-0.7674109,0.8731204,1.1058182,-0.41626897,-1.0119842,0.8066298,0.91511023,0
Cloud/cloudy291.jpg,0.7164647,0.43517396,-0.82822424,-0.33403826,0.165958,-0.006204622,0.026940921,0.4093035,0.40018803,0.3266742,-0.13650848,-1.3938444,-0.33802435,-0.72213787,-0.91695815,-0.7134689,1.5852665,0.6508197,-0.16213995,-0.5083132,-0.82792306,-0.64613146,0.30965015,1.669157,-0.35312995,-0.13199003,1.6414113,0.7682636,-1.448811,-0.23728783,0.91224086,0.8939836,0
Cloud/cloudy292.jpg,0.70000726,1.0633078,-0.060365915,-0.54756504,0.2203322,0.30093685,0.87402695,0.08934195,0.7110896,-0.1678972,-0.18934724,-1.8343036,0.8103681,-0.37875384,-0.7764656,-0.28190544,1.5990617,-0.054734223,-0.2930655,-0.0065334253,-0.4209344,-0.96281046,0.42364854,1.5058497,0.08584938,0.6295928,1.3959502,0.38921517,-1.4817942,-0.07959019,1.3017008,0.4437725,0
Cloud/cloudy293.jpg,0.28275567,0.6220647,-0.6315339,-0.69858944,-0.13506195,-0.13675381,-0.1781131,-0.2413771,0.014425909,0.6276882,0.75001884,-0.75327855,-0.043369744,-0.8178359,-0.3596931,-0.047387645,0.96454436,-0.0015757009,0.16789383,-0.4230854,-1.0948174,-0.7936042,0.67142767,0.9978131,-0.15599507,-0.059001863,0.8440868,1.2030267,-1.2822567,-0.8455207,0.49484628,0.64951956,0
Cloud/cloudy294.jpg,0.8640077,0.8272098,-0.6175556,-0.05638683,-0.90400225,-0.40717354,-0.1773369,1.0591321,0.44753292,-0.4368138,-1.0488038,-0.64537144,-0.5104432,-0.41272113,-0.8407749,-0.27731115,1.3448051,0.33709073,0.2493392,-0.50209993,-1.086375,-1.1052284,0.4967755,1.4936035,0.0075648334,0.19284312,2.0284677,0.43343967,-0.6347017,-1.1732821,0.71635485,0.7488334,0
Cloud/cloudy295.jpg,1.2051125,1.9134747,-1.1478361,0.15383431,-1.4400088,-0.44317156,0.25007877,1.4308008,0.52080953,-0.20400186,-1.122082,-1.2346233,0.8277333,-1.1239481,-1.732942,0.8188816,1.6302236,-0.54544824,0.29047447,-1.2876307,-1.4143016,-1.5716513,0.6088206,2.4089363,0.50119543,-0.42794195,2.6929896,1.3594896,-1.0708823,-2.417564,1.4603175,1.6550034,0
Cloud/cloudy296.jpg,5.7833735e-05,0.8919651,-1.4801685,-0.56765705,-0.5431131,-0.037169263,0.08080995,-0.9329536,-0.2385165,0.6304866,1.0275372,-0.37448344,-0.34116465,-1.8197513,0.14685531,-0.28559625,0.07302317,0.10060763,1.2196989,-1.2603593,-0.7569563,-0.9892691,0.9266124,1.4123617,0.18900621,-0.5140233,0.7688599,1.9883531,-1.2053998,-0.7053958,0.6328617,0.5009468,0
Cloud/cloudy297.jpg,0.84180087,1.0160048,0.6520217,0.23156208,-0.25931138,-0.50744414,-0.2446218,1.022887,0.78697443,-0.48384234,-0.24832727,-1.7346151,0.3960492,-0.2064861,-1.3113257,-0.023996532,1.6634536,0.021690056,0.16549757,-2.2704885,-1.0521871,-0.5644958,-0.40812004,1.9638734,0.17955136,-0.33571428,1.9945492,1.430023,-2.046408,-0.7645424,-0.31620812,0.31416765,0
Cloud/cloudy298.jpg,0.49214423,0.5974697,-0.3404621,-0.23250133,-0.44385657,-0.26219964,-0.23490572,0.36053336,0.32815355,0.0072159795,-0.17482068,-0.55925,-0.08827613,-0.49232277,-0.477856,-0.12688059,0.8396939,0.25626528,0.48196667,-0.6471724,-0.71081054,-0.8646136,0.5005602,1.052296,-0.067515515,-0.18235546,1.1865168,0.8129541,-0.70774496,-0.72540784,0.4422006,0.3656265,0
Cloud/cloudy299.jpg,1.0984416,1.5747927,-1.0662004,-0.6642914,-0.954854,-0.15391691,-0.53063285,1.1720649,0.27605715,0.4657985,-0.31670114,-1.9660184,0.42721665,-1.393542,-1.3478796,0.06118469,2.1612537,0.39334196,0.12925096,-1.0965726,-1.9704847,-1.9988956,0.953322,2.8150024,-0.432163,0.16979289,2.5729766,1.7666721,-2.18872,-1.9298098,1.5764416,1.6425786,0
Cloud/cloudy3.jpg,0.7375974,0.90704805,-1.484329,-0.2982021,-0.52005273,-0.2371333,-0.5253649,-0.37524933,-0.03261096,1.3304129,1.0101503,-0.7433037,0.37326235,-1.3188581,-0.84890294,-0.040866517,1.5634897,-0.34930637,-0.1522617,-0.90620226,-1.4436053,-0.8347095,1.0633612,2.3345833,-0.20129359,-1.1080135,1.7458903,2.1087024,-2.3874419,-1.4414167,1.6787307,1.9571693,0
Cloud/cloudy30.jpg,0.6451715,0.71284056,0.33242238,-0.2356461,-0.3279719,-0.24172848,-0.25168636,0.32288083,0.002403046,-0.012811519,0.3996152,-1.620182,0.0065790005,-0.5904474,-0.84896207,-0.18811058,1.3626443,0.044731993,0.41456026,-1.2093543,-0.4211925,-0.917524,0.5545208,1.754417,-0.33939964,0.15176202,1.5784047,1.3047466,-2.1845996,0.07029196,0.829939,0.83796597,0
Cloud/cloudy300.jpg,1.1693503,0.64537966,-1.4483039,-0.13757795,0.67353874,0.3687757,0.24285701,-0.861904,0.015500177,1.3679155,1.5894834,-0.7717011,0.6826706,-1.0165217,-0.99464065,0.3011108,1.5157466,-0.57525265,-0.8288094,0.44798362,-0.25862706,-1.0632063,0.455428,1.4814538,-0.6284384,-1.1260773,0.8418895,0.9440994,-2.522501,-0.501533,1.3904128,2.3700917,0
Cloud/cloudy31.jpg,0.2523451,1.1828022,-1.1115489,-0.92357093,-0.25343868,-0.83266675,-0.37089527,0.087982975,0.036302906,0.41700023,0.6687816,-1.1317227,-0.37132427,-1.1753607,-0.35947427,-0.32396972,1.5306287,0.23231533,0.43378648,-0.8147651,-1.2915844,-1.3595033,1.074065,1.6123766,-0.077639274,-0.6028386,1.9501493,1.8761367,-1.9054356,-0.82382625,0.8568122,1.0445288,0
Cloud/cloudy32.jpg,-0.0043575,0.9526218,-1.0184609,-0.91187793,-0.33847874,-0.6811434,-0.20136794,-0.44927403,-0.38637578,0.46269742,1.3341291,-0.54828006,-0.42291832,-0.7954316,0.11477072,-0.4399073,1.035918,-0.039799713,0.76814646,-0.2395555,-0.50121504,-1.3054007,0.92465514,0.7381923,-0.2788879,-0.7016218,1.007998,1.58485,-1.2395153,-0.8751164,0.5686424,1.0470237,0
Cloud/cloudy33.jpg,0.64564186,1.2864658,-0.6099556,-0.73157763,-0.24232857,-0.5940144,-0.2153904,0.18790945,0.052925114,0.12942652,0.6509895,-1.4621611,-0.08607091,-1.1719894,-0.71596986,-0.056928188,1.5310243,0.29524645,0.88290066,-1.2592108,-0.5242696,-1.715235,0.7658329,1.685564,-0.36527362,-0.6486932,1.822693,1.8438594,-2.0649734,-0.49214154,0.71512836,0.9969712,0
Cloud/cloudy34.jpg,0.6451715,0.71284056,0.33242238,-0.2356461,-0.3279719,-0.24172848,-0.25168636,0.32288083,0.002403046,-0.012811519,0.3996152,-1.620182,0.0065790005,-0.5904474,-0.84896207,-0.18811058,1.3626443,0.044731993,0.41456026,-1.2093543,-0.4211925,-0.917524,0.5545208,1.754417,-0.33939964,0.15176202,1.5784047,1.3047466,-2.1845996,0.07029196,0.829939,0.83796597,0
Cloud/cloudy35.jpg,0.611907,0.964189,-0.592799,-0.66203386,-0.5637765,-0.52979153,-0.7151895,0.6883424,0.13911115,0.40827438,0.3599293,-1.287686,-0.2841891,-0.98849165,-0.8345089,-0.20142272,1.5309384,0.30540714,0.37346533,-0.8600671,-1.1967417,-1.576013,0.6761282,1.7718421,-0.4793298,-0.5182274,1.7394742,1.6101149,-1.8968773,-1.0869473,0.8363953,1.3868974,0
Cloud/cloudy36.jpg,0.8028129,0.83173645,0.15020053,-0.07823243,-0.4413625,-0.33179706,-0.2646619,0.640266,0.46924347,-0.24594031,-0.26730427,-1.3277483,0.21909901,-0.5354032,-1.0297761,0.024889838,1.3266315,0.2204661,0.6139545,-1.4484655,-0.5882863,-1.0338385,0.39307454,1.6891048,-0.21731086,-0.18637773,1.7678064,1.2076262,-1.5683076,-0.4143701,0.57525414,0.48201948,0
Cloud/cloudy37.jpg,1.593697,2.2301452,-0.053215817,-0.6651763,-0.9094087,-0.5382232,-0.0965706,0.7605874,0.3790695,-0.27247697,-0.2628157,-2.2674327,0.7984914,-1.5000616,-1.3338442,0.19615045,2.4989223,0.8438622,1.3403764,-2.3433032,-1.1973705,-2.518553,0.63668585,3.20478,-0.4155264,0.43843704,2.5865192,2.216723,-2.6885018,-1.659745,0.3730724,0.64262307,0
Cloud/cloudy38.jpg,1.0545049,1.5321507,-0.6071781,-0.83803535,-1.0404035,-0.41679263,-0.8732338,1.1917267,-0.108234435,0.68440413,0.12236693,-1.9096061,0.7541242,-1.3316826,-1.0947872,0.24651328,1.8887777,0.7345104,0.8971064,-1.4951282,-1.7012029,-2.3312771,0.98613906,2.9195747,-0.7135444,-0.04068555,2.2559566,2.327739,-2.433895,-2.3597112,1.1892775,1.6595849,0
Cloud/cloudy39.jpg,0.8052561,1.4544859,0.58367556,-0.4126985,-0.47582874,-0.4466368,-0.110481456,1.2146163,0.61049837,-0.5018498,-0.22252664,-2.5338802,0.97864324,-0.20921566,-1.4434433,-0.03499596,2.1160421,-0.24453843,0.06617257,-1.3523798,-0.67900664,-1.4132984,0.6199648,2.1543913,-0.22063102,0.031758327,2.5859945,1.5157461,-2.3549244,-0.5276874,1.4082938,1.1842238,0
Cloud/cloudy4.jpg,0.81813765,1.4454584,-1.155469,-0.6468156,-0.37894356,-0.50188214,-0.19543499,-0.022181354,0.33056396,0.49301776,0.6767621,-1.1563462,0.074115194,-1.4299235,-0.85937935,-0.018055659,1.7326701,0.2841776,1.0351287,-1.3778553,-1.0896504,-1.6923741,0.99626726,1.9017528,-0.31042168,-0.99156165,1.9120634,2.1273098,-2.0339248,-1.245815,0.81626153,1.1154907,0
Cloud/cloudy40.jpg,0.95353115,1.5516373,-0.11707803,-0.7122101,-1.1330848,-0.53525,-0.54390764,1.3033419,0.08204586,0.18128572,-0.277057,-1.8280474,0.5313092,-1.0094106,-1.1084708,0.4089554,1.8777999,0.51245856,0.8560688,-1.6829841,-1.9199611,-2.0929928,0.8253484,2.7798283,-0.113960996,0.46023932,2.323292,1.9165671,-2.3544645,-2.172773,0.85744035,0.9633919,0
Cloud/cloudy41.jpg,0.37815306,0.44824955,-0.4445386,-0.4223168,-0.46239775,-0.17464352,-0.46819997,0.2597755,0.22869658,0.4547274,-0.039075322,-0.4962914,-0.06836088,-0.6575119,-0.36601067,-0.1033146,0.65003186,0.19994332,0.3432314,-0.86197793,-1.1802666,-0.7092808,0.60082716,1.5389014,0.060190607,-0.3370079,1.2668148,1.2231007,-1.0842298,-1.1785532,0.8790079,0.5581995,0
Cloud/cloudy42.jpg,0.64005506,0.9315492,-0.740988,-0.47807518,-0.9107381,-0.60059893,-0.7303885,0.831448,0.3006456,0.36203343,-0.67782056,-0.72919357,0.0018824432,-1.006631,-0.5465989,-0.15545414,1.1484512,0.57133514,0.43329835,-1.1333123,-1.6082838,-1.2074449,0.89012295,2.3780875,0.11176354,-0.32065266,2.0844743,1.553318,-1.3159559,-1.6541725,1.1777139,0.8491847,0
Cloud/cloudy43.jpg,0.9097526,0.9947619,-0.7788716,-0.3619545,-1.0793439,-0.59296864,-0.5701486,0.9668476,0.37472463,0.013893083,-0.93288505,-0.4014737,-0.18116394,-0.711158,-0.7669797,0.01808011,1.2757431,0.4247621,0.42992276,-0.8511319,-1.4514455,-1.3629591,0.87477815,2.1137362,0.12997589,-0.23201442,2.168049,1.0687987,-0.9950777,-1.8536032,1.1229273,0.92201966,0
Cloud/cloudy44.jpg,1.4795418,1.0879632,-1.3203783,-0.1892774,-1.5088834,-0.456145,-0.5159841,1.5118563,0.33079386,0.0053891465,-1.7136114,-0.11201817,-0.62588185,-1.0059252,-1.0985206,0.34171766,1.4138805,0.82043266,0.5000017,-0.5418533,-1.5334325,-2.061073,0.7240761,2.689995,0.13709958,-0.11696166,2.3688693,0.5346303,-0.90505934,-2.2841294,1.5267097,1.2333951,0
Cloud/cloudy45.jpg,0.91021216,1.7182757,-1.7459878,-0.6276921,-0.9288019,-0.80497634,-0.73626995,0.2331703,0.02075832,0.9963132,0.87553686,-1.1336758,0.13370842,-1.835619,-1.1357412,0.044015653,1.9874966,-0.27647752,0.24773614,-1.1117754,-1.589269,-1.8343794,1.0630646,2.5603526,-0.39888823,-1.4736824,2.2988598,2.6256955,-2.4967303,-2.1002073,1.4306188,2.5826564,0
Cloud/cloudy46.jpg,0.35004073,0.913161,-1.4772515,-0.62125844,-0.3626027,-0.13793111,0.005881029,-0.116950795,-0.12645951,0.77269363,0.6383658,-0.5640041,-0.060030278,-1.1951681,-0.3064321,-0.04537978,0.9690157,-0.1318699,0.15974309,0.2745053,-0.9509786,-1.1831522,0.82705414,1.0016134,-0.2511698,-0.38528132,0.901551,1.0511068,-0.9505023,-1.2573485,0.98739135,1.4572265,0
Cloud/cloudy47.jpg,0.73665684,0.82623243,-0.5702181,-0.1620984,-0.74551374,-0.8358355,-0.6780418,0.774397,0.5892297,-0.050305918,-1.0333897,-0.10619672,0.155085,-0.24371141,-0.30856287,-0.39806914,1.3290628,0.4825412,-0.014052961,-0.7518006,-1.5582718,-0.6533396,0.8766092,1.817038,0.25518942,-0.18556146,2.1972082,0.8943744,-0.6670151,-1.7094156,0.64440703,0.5047008,0
Cloud/cloudy48.jpg,0.6593989,0.95800585,-0.9326779,-0.45231283,-0.9850675,-0.6294963,-0.57676595,0.8526086,0.2026327,0.15098396,-0.6946282,-0.40794766,-0.11173363,-0.6825812,-0.4905847,-0.18849574,1.1527625,0.23941395,0.1606338,-0.40303785,-1.3568482,-1.1996853,0.83271915,1.7867142,-0.026130253,-0.2868743,1.9781325,1.079257,-0.70939994,-1.9286907,1.1124638,1.2085342,0
Cloud/cloudy49.jpg,0.47137174,0.11889921,-0.70985776,-0.033848602,-0.25837278,-0.059993792,0.2984503,0.60096437,0.60925007,-0.42156422,-1.1493639,-0.036096573,-0.79589385,0.35247394,-0.39577743,-1.0352582,1.03127,0.30435008,-0.44508928,-0.24886522,-1.1407322,0.06705989,-0.028610807,1.0682933,0.48915648,0.19031335,1.6673845,-0.2847062,-0.10127308,-1.2428311,0.5525376,0.28531235,0
Cloud/cloudy5.jpg,-0.04171486,0.96360856,-0.99502647,-0.85351527,-0.4146744,-0.71773666,-0.21767364,-0.39909664,-0.40978304,0.43238658,1.2336876,-0.4776836,-0.3980821,-0.7830387,0.13044225,-0.324933,0.98040617,-0.16506726,0.7469015,-0.21326481,-0.48997763,-1.3164128,0.95033336,0.7247134,-0.22412598,-0.7440738,1.0337559,1.554735,-1.2341989,-0.8724793,0.68087745,1.0902393,0
Cloud/cloudy50.jpg,0.5719722,1.2219018,-1.1380386,-0.5956602,-0.8382196,-0.55361855,-0.48190197,0.5594763,0.17187873,0.32399863,-0.39942813,-0.8489361,0.19461173,-1.103622,-0.40018117,-0.28016213,1.3516772,0.30837023,0.32489228,-0.49806726,-1.039635,-1.5467576,0.81044346,1.8582717,-0.24433841,-0.5759559,1.8627193,1.4393228,-1.0110058,-1.5396545,1.1822373,1.2340524,0
Cloud/cloudy51.jpg,0.3886222,0.4023847,-0.4187829,-0.55181813,-0.47661334,-0.38994792,-0.4590671,0.9029634,0.19207402,0.0036109686,-0.72572273,-0.65140194,-0.6732103,-0.14689788,-0.26988554,-0.63042045,1.1778843,0.5982253,-0.14391464,-0.3093058,-1.1594155,-0.9616287,0.3458021,1.6565716,0.07380465,0.07251018,1.7269725,0.53092736,-1.0904675,-0.9820659,0.9919073,0.6102967,0
Cloud/cloudy52.jpg,0.50492823,0.20559974,0.18973309,-0.4952359,-0.24968438,-0.27033064,-0.53095186,0.4716188,0.44551545,0.24984968,-0.5194999,-0.39886886,-0.21779576,-0.4084892,-0.3786668,0.015463658,0.64512986,1.117813,0.8239399,-1.6694223,-1.0883086,-1.107639,0.47051546,2.277715,0.5812261,-0.2542801,1.3073573,0.93805015,-1.8476869,-0.5039536,0.81300133,-0.54681623,0
Cloud/cloudy53.jpg,0.84243405,0.9156091,-0.91702044,-0.21056955,-0.54233277,-0.28024137,0.34829548,0.19232716,0.7127855,-0.35310516,-0.9982836,-0.2575715,-0.15392286,-0.42338455,-0.45688862,-0.49422497,1.3196985,0.43504173,0.24182865,-0.1345902,-0.78407013,-0.7975127,0.7426263,1.3166173,0.40279466,0.10935258,1.7327812,0.23199782,-0.08022213,-0.9091719,0.7483234,0.04056298,0
Cloud/cloudy54.jpg,0.7916043,1.3780829,-0.5158507,-0.6458042,0.048816808,-0.460088,0.108560465,-0.1543383,-0.018001944,0.307807,1.3228493,-1.3724788,0.5922328,-0.61573964,-0.6197957,-0.43663228,1.8716613,0.34964103,0.5176796,-1.0978888,-0.88212615,-1.0761299,0.6468428,1.413252,-0.38280022,0.04948764,1.4374363,1.7233251,-1.8963051,-1.3907734,-0.31420067,0.97884357,0
Cloud/cloudy55.jpg,0.6927136,0.83060163,-0.837576,-0.6038472,0.1491003,0.013576038,0.6805991,0.03680125,0.7984505,0.024921972,0.017780602,-1.2132058,-0.12639761,-0.50363755,-1.0165533,-0.399459,1.634345,-0.054405417,-0.2387584,-0.08950747,-0.9119253,-0.9625598,0.64899015,1.3710797,0.27183408,-0.12007387,1.7261723,0.48277658,-1.5467591,-0.3571211,1.3702244,0.77741003,0
Cloud/cloudy56.jpg,0.5919303,1.384938,-0.7839168,-0.99817324,-0.746876,-0.6380514,-0.26466715,0.71353674,0.02514502,0.18334806,0.1741021,-1.4650186,-0.34241146,-1.1466601,-0.96729577,0.22459704,1.6395562,0.008766595,0.5478884,-0.87528527,-1.2350426,-1.9062381,0.8194483,2.0582027,-0.07652652,-0.43060032,2.0988207,1.7270691,-2.0190742,-1.388218,1.3387133,1.4064485,0
Cloud/cloudy57.jpg,0.5663326,1.0123227,-0.9283654,-0.49333742,-0.23608771,-0.47785592,0.04970028,0.5310443,0.43209368,-0.051097468,-0.36786723,-1.606625,-0.6007877,-0.96890205,-0.82071096,-0.6899279,2.0215483,0.43527007,-0.011286374,-1.0148736,-1.2796555,-0.8596059,0.30986464,1.9547756,-0.020892262,-0.11816626,2.2446048,1.1821802,-1.7301476,-0.53013843,0.7314888,0.70819134,0
Cloud/cloudy58.jpg,0.57422906,0.3885311,0.030265294,-0.5010296,-0.40448108,0.27969462,0.21818487,0.87983525,0.3918824,-0.115062505,-0.9134552,-1.2174982,-0.47466534,-0.40477526,-0.8598205,-0.09237161,1.0728687,0.51039463,-0.14316821,-0.18724129,-0.88670766,-1.2215579,0.2828122,1.8417286,0.40571636,0.886987,1.2092835,-0.20447533,-1.4263809,0.013354877,1.5521941,0.12391862,0
Cloud/cloudy59.jpg,0.76638246,0.2830168,-0.53098816,-0.10446122,-0.025103997,0.705587,0.9197606,0.064663336,0.3472063,-0.227322,-0.23079371,-1.7485232,-0.70400125,-0.16802245,-1.0733387,-1.2326875,2.0368114,0.20106998,-0.6941686,0.12401906,-0.6361749,-0.14747934,-0.044828635,1.2267758,-0.3275436,1.2817762,1.3664107,-0.3814062,-1.3255979,0.39695042,1.0180404,0.5148709,0
Cloud/cloudy6.jpg,0.92724186,1.4152857,-0.65040195,-0.40471953,-0.7508915,-0.69574374,-0.6334006,0.84135544,0.063536,0.32445183,0.2878952,-1.3661903,0.23376319,-1.2574335,-0.9383853,0.1396241,1.6302061,0.6930315,1.2798721,-1.5874951,-0.9413157,-2.1018538,0.99356544,2.2560205,-0.4873983,-0.6766644,2.0607347,2.0621185,-2.2706735,-1.2668724,0.8033574,1.3417945,0
Cloud/cloudy60.jpg,0.5862266,0.8463589,-0.52665395,-0.35184005,-0.65966517,-0.15497673,0.08833569,0.5145008,0.25215974,-0.15537784,-0.422059,-0.8952245,-0.123658694,-0.72262853,-0.64031464,0.05704314,0.92913496,0.013838725,0.43569976,-0.44402438,-0.8895704,-1.189295,0.54047817,1.258775,0.058389362,0.27592996,1.4622271,0.67893153,-0.7216976,-0.93428457,0.749884,0.5276548,0
Cloud/cloudy61.jpg,0.533582,0.7587374,-1.3265985,-0.26959112,-0.3083775,-0.20638894,0.72898674,-0.18809578,0.56544983,-0.33127695,-0.70124274,0.1035401,-0.7364567,-0.5139534,-0.23620558,-0.51425457,0.9665178,-0.0112121515,-0.086214095,0.2434403,-0.7387875,-0.43887386,0.5141775,0.7470081,0.6141919,-0.003915215,1.3987782,-0.0386139,0.087462224,-0.7019566,0.7051437,0.1786641,0
Cloud/cloudy62.jpg,0.6471826,1.027565,-0.21332543,-0.5906174,-0.6132339,-0.4042293,-0.13515359,0.09806453,0.62863344,-0.026237637,-0.5743712,-0.26901984,0.1558298,-0.63300425,-0.32187247,0.25724614,1.0066493,0.048386708,0.17645827,-0.93616104,-1.575738,-1.0214415,0.7054779,1.841221,0.7833706,0.21051276,1.5295763,0.93008846,-1.1242994,-1.412029,0.5861072,-0.1912213,0
Cloud/cloudy63.jpg,0.8667158,0.6414006,-0.48442113,-0.26626232,-0.33414128,-0.28303912,-0.43232813,0.46212542,0.49693146,0.4640256,-0.3527092,-1.0351055,0.28648221,-0.82826024,-0.8712508,-0.3413085,1.3279445,0.6782178,0.24906474,-1.274234,-1.2058321,-0.75824,0.5769063,2.4220712,-0.06827426,-0.32988814,1.8235335,1.3954772,-1.6247836,-1.022713,1.0017304,0.69640315,0
Cloud/cloudy64.jpg,0.2765954,0.89222014,-0.30992326,-1.0622134,-0.5324441,-0.21615393,-0.21888384,0.15194657,0.40033346,0.44542056,-0.4159863,-0.6884523,0.38494703,-0.75212693,-0.10702485,-0.018723985,0.8802965,0.12528676,-0.028145352,-0.31603268,-1.5479568,-1.2306186,0.88247776,1.980074,0.60161024,0.2611953,1.28843,1.0403315,-1.116607,-1.4463758,1.3652569,0.20524958,0
Cloud/cloudy65.jpg,0.5448643,1.0358592,-0.90233433,-0.37801367,-0.776543,-0.8827325,-0.5498458,0.96143174,0.14270712,0.35242733,-0.6038494,-1.1494828,-0.4967498,-1.5632781,-0.96494937,0.16986628,1.1306933,0.6229174,0.5146218,-2.4452438,-1.743875,-0.75512993,-0.16097467,3.0920877,0.49648014,-0.95834666,2.1446254,2.239435,-2.057355,-1.66281,0.48089486,0.79207283,0
Cloud/cloudy66.jpg,1.1375452,1.0708631,-0.37708378,-0.24522212,-0.8223127,0.05065182,0.37413043,0.8992745,0.78060013,-0.5935665,-1.3886135,-0.8964516,0.114809826,-0.38697085,-1.0527248,0.13404766,1.4278495,0.43987685,0.50548977,-0.48892596,-0.75456285,-1.6877025,0.4267285,1.8275499,0.32069188,0.47909653,1.817497,0.08464664,-0.6534839,-1.0035472,1.0915346,0.03492982,0
Cloud/cloudy67.jpg,0.8707952,0.9972421,-0.14919195,-0.55582035,-0.44418693,-0.3997348,-0.21160528,0.25636363,0.66124463,0.10965623,-0.48842967,-0.6657743,0.30759105,-0.90908146,-0.7366799,0.32421714,1.1064107,0.35618523,0.41773975,-0.8010347,-0.9354789,-1.4669503,0.7341086,1.9862087,0.37633345,-0.12515987,1.3766134,0.9199457,-1.3077224,-0.7499437,0.8716863,0.14630505,0
Cloud/cloudy68.jpg,0.8623798,0.63053226,-0.13871622,-0.31630182,-0.40611976,0.32075852,0.6018644,0.66262877,0.70043343,-0.5528647,-0.8729366,-1.3710302,-0.4146694,-0.36533147,-1.3328819,-0.019317586,1.3153765,0.32574165,0.29594132,-0.81989974,-0.60560924,-1.0936095,-0.00013962109,1.6633682,0.28304374,0.45074642,1.5467381,0.1131621,-1.2464515,-0.09838846,1.1122322,-0.068632886,0
Cloud/cloudy69.jpg,0.77472866,0.6845947,-0.57588315,-0.090455785,-0.8718665,0.067025125,0.3195937,0.602026,0.31450588,-0.38782868,-0.86938894,-0.940584,-0.50782615,-0.6547485,-1.1230379,-0.0446603,1.1996199,-0.07472052,0.021614343,-0.783183,-1.0552766,-0.7325513,0.3710113,1.6813989,0.32090873,0.63434994,1.7340653,0.28423113,-1.0764353,-0.61214465,1.1033322,0.5131899,0
